\data\
ngram 1=412
ngram 2=1023

\1-grams:
-3.0411115	<unk>	0
0	<s>	-0.44901937
-1.9212693	</s>	0
-2.8981967	数学	-0.094984554
-1.607386	数	-0.67863476
-1.9985899	学	-0.159067
-2.8981967	基础数学的知识与运用总是个人与团体生活中不可或缺的一块。其基本概念的精炼早在古埃及、美索不达米亚及古印度内的古代数学文本内便可观见。从那时开始，其发展便持续不断地有小幅的进展，直至16世纪的文艺复兴时期，因为和新的科学发现相作用而产生的数学革新导致了知识的加速发展，直至今日。	-0.094984554
-2.4962227	基	-0.24203849
-2.8981967	础	-0.094984554
-1.3000693	的	-0.1702049
-2.4962227	知	-0.4296245
-2.8981967	识	-0.094984554
-2.4962227	与	-0.094984554
-2.8981967	运	-0.094984554
-2.0927238	用	-0.13905524
-2.8981967	总	-0.094984554
-2.380133	是	-0.13905524
-2.6664026	个	-0.094984554
-2.6551394	人	-0.094984554
-2.8981967	团	-0.094984554
-2.6664026	体	-0.094984554
-2.28862	生	-0.19403261
-2.6664026	活	-0.094984554
-1.9985899	中	-0.13139251
-2.380133	不	-0.2327965
-2.4962227	可	-0.094984554
-2.6664026	或	-0.094984554
-2.8981967	缺	-0.094984554
-1.9582112	一	-0.15265302
-2.8981967	块	-0.094984554
-1.6249263	。	-0.2299286
-2.380133	其	-0.11891429
-2.6551394	本	-0.094984554
-2.380133	概	-0.3389485
-2.8981967	念	-0.24203849
-2.8981967	精	-0.094984554
-2.8981967	炼	-0.094984554
-2.6664026	早	-0.094984554
-2.0927238	在	-0.11021583
-2.28862	古	-0.13139251
-2.8981967	埃	-0.094984554
-2.2130744	及	-0.094984554
-2.2130744	、	-0.16288961
-2.6664026	美	-0.094984554
-2.8981967	索	-0.094984554
-2.8981967	达	-0.094984554
-2.8981967	米	-0.094984554
-2.6664026	亚	-0.094984554
-2.8981967	印	-0.094984554
-2.6664026	度	-0.094984554
-2.28862	内	-0.17113423
-2.6551394	代	-0.21488239
-2.2130744	文	-0.094984554
-2.6551394	便	-0.094984554
-2.8981967	观	-0.094984554
-2.8981967	见	-0.094984554
-2.6551394	从	-0.094984554
-2.8981967	那	-0.094984554
-2.4962227	时	-0.094984554
-2.4962227	开	-0.5265345
-2.8981967	始	-0.2083745
-1.5011673	，	-0.17629305
-2.0431113	发	-0.4296245
-2.6551394	展	-0.29974332
-2.8981967	持	-0.094984554
-2.8981967	续	-0.094984554
-2.8981967	断	-0.30468577
-2.6551394	地	-0.094984554
-1.887225	有	-0.1091836
-2.8981967	小	-0.094984554
-2.8981967	幅	-0.094984554
-2.8981967	进	-0.094984554
-2.6551394	直	-0.24203849
-2.6551394	至	-0.2083745
-2.28862	1	-0.18729934
-2.6664026	6	-0.24203849
-2.6664026	世	-0.4296245
-2.8981967	纪	-0.094984554
-2.6664026	艺	-0.094984554
-2.380133	复	-0.3389485
-2.8981967	兴	-0.094984554
-2.6551394	期	-0.094984554
-2.8981967	因	-0.094984554
-2.0431113	为	-0.21390368
-2.0431113	和	-0.094984554
-2.6551394	新	-0.24203849
-2.380133	科	-0.67266256
-2.28862	现	-0.18184383
-2.4962227	相	-0.13905524
-2.6551394	作	-0.17113423
-2.380133	而	-0.13139251
-2.6551394	产	-0.24203849
-2.8981967	革	-0.094984554
-2.8981967	导	-0.094984554
-2.8981967	致	-0.094984554
-2.1487434	了	-0.094984554
-2.6664026	加	-0.094984554
-2.8981967	速	-0.094984554
-2.4962227	今	-0.26821595
-2.8981967	日	-0.094984554
-2.8981967	西方语言中“数学”一词源自于古希腊语的，其有"学习"、"学问"、"科学"，以及另外还有个较狭意且技术性的意义－“数学研究”，即使在其语源内。其形容词	-0.094984554
-2.8981967	，意义为"和学习有关的"或"用功的"，亦会被用来指"数学的"。其在英语中表面上的复数形式，及在法语中的表面复数形式	-0.094984554
-2.8981967	'，可溯至拉丁文的中性复数	-0.094984554
-2.8981967	'，由西塞罗译自希腊文复数	-0.094984554
-2.8981967	，此一希腊语被亚里士多德拿来指“万物皆数”的概念。	-0.094984554
-2.6551394	西	-0.17113423
-2.6551394	方	-0.094984554
-2.28862	语	-0.12200039
-2.6664026	言	-0.094984554
-2.1487434	“	-0.21346945
-2.1487434	”	-0.15429889
-2.6551394	词	-0.15080896
-2.4962227	源	-0.13905524
-2.380133	自	-0.13905524
-2.2130744	于	-0.094984554
-2.4962227	希	-0.4296245
-2.8981967	腊	-0.24203849
-2.0927238	"	-0.15080896
-2.8981967	习	-0.094984554
-2.4962227	问	-0.25424615
-2.28862	以	-0.17284817
-2.8981967	另	-0.094984554
-2.8981967	外	-0.094984554
-2.6551394	还	-0.094984554
-2.8981967	较	-0.094984554
-2.8981967	狭	-0.094984554
-2.4962227	意	-0.15080896
-2.4962227	且	-0.094984554
-2.6664026	技	-0.21488239
-2.6664026	术	-0.094984554
-2.6551394	性	-0.094984554
-2.8981967	义	-0.094984554
-2.8981967	－	-0.094984554
-2.28862	研	-0.60571575
-2.8981967	究	-0.094984554
-2.6664026	即	-0.21488239
-2.380133	使	-0.094984554
-2.28862	形	-0.25424615
-2.6664026	容	-0.094984554
-2.6551394	关	-0.13905524
-2.8981967	功	-0.094984554
-2.4962227	亦	-0.094984554
-2.6551394	会	-0.094984554
-2.2130744	被	-0.094984554
-2.4962227	来	-0.13139251
-2.8981967	指	-0.094984554
-2.8981967	英	-0.094984554
-2.6664026	表	-0.21488239
-2.6664026	面	-0.094984554
-2.6664026	上	-0.094984554
-2.8981967	式	-0.094984554
-2.6551394	法	-0.094984554
-2.6664026	'	-0.21488239
-2.8981967	溯	-0.094984554
-2.8981967	拉	-0.094984554
-2.8981967	丁	-0.094984554
-2.8981967	由	-0.094984554
-2.8981967	塞	-0.094984554
-2.8981967	罗	-0.094984554
-2.8981967	译	-0.094984554
-2.380133	此	-0.18729934
-2.8981967	里	-0.094984554
-2.8981967	士	-0.094984554
-2.6551394	多	-0.13905524
-2.8981967	德	-0.094984554
-2.8981967	拿	-0.094984554
-2.6551394	万	-0.094984554
-2.6664026	物	-0.094984554
-2.8981967	皆	-0.094984554
-2.8981967	数学有着久远的历史。它被认为起源于人类早期的生产活动；中国古代的六艺之一就有“数”，数学一词在西方有希腊语词源（mathematikós）,	-0.094984554
-2.8981967	意思是“学问的基础”，源于（máthema）（“科学，知识，学问”）。	-0.094984554
-2.6664026	着	-0.094984554
-2.8981967	久	-0.094984554
-2.8981967	远	-0.094984554
-2.6551394	历	-0.30468577
-2.8981967	史	-0.094984554
-2.6664026	它	-0.17113423
-2.8981967	认	-0.094984554
-2.8981967	起	-0.094984554
-2.8981967	类	-0.094984554
-2.8981967	动	-0.094984554
-2.6664026	；	-0.094984554
-2.6664026	国	-0.094984554
-2.8981967	六	-0.094984554
-2.6551394	之	-0.094984554
-2.8981967	就	-0.094984554
-2.6551394	（	-0.17113423
-2.6664026	m	-0.24203849
-2.6664026	a	-0.15080896
-2.6664026	t	-0.17113423
-2.6664026	h	-0.17113423
-2.6664026	e	-0.17113423
-2.6551394	i	-0.17113423
-2.6664026	k	-0.094984554
-2.8981967	ó	-0.094984554
-2.8981967	s	-0.094984554
-2.6551394	）	-0.094984554
-2.8981967	,	-0.094984554
-2.8981967	思	-0.094984554
-2.8981967	á	-0.094984554
-2.8981967	从历史时代的一开始，数学内的主要原理是为了做税务和贸易等相关计算，为了了解数字间的关系，为了测量土地，以及为了预测天文事件而形成的。这些需要可以简单地被概括为数学对数量、结构、空间及时间方面的研究。	-0.094984554
-2.8981967	主	-0.094984554
-2.6664026	要	-0.094984554
-2.8981967	原	-0.094984554
-2.28862	理	-0.13139251
-2.8981967	做	-0.094984554
-2.8981967	税	-0.094984554
-2.8981967	务	-0.094984554
-2.6664026	贸	-0.21488239
-2.6664026	易	-0.094984554
-2.380133	等	-0.094984554
-2.8981967	计	-0.094984554
-2.6664026	算	-0.094984554
-2.6664026	解	-0.094984554
-2.6664026	字	-0.094984554
-2.4962227	间	-0.1881084
-2.8981967	系	-0.094984554
-2.6551394	测	-0.17113423
-2.2130744	量	-0.17233326
-2.6664026	土	-0.21488239
-2.8981967	预	-0.094984554
-2.6664026	天	-0.21488239
-2.6664026	事	-0.094984554
-2.8981967	件	-0.094984554
-2.6551394	成	-0.1881084
-2.6664026	这	-0.094984554
-2.6664026	些	-0.094984554
-2.8981967	需	-0.094984554
-2.8981967	简	-0.094984554
-2.8981967	单	-0.094984554
-2.8981967	括	-0.094984554
-2.6664026	对	-0.094984554
-2.8981967	结	-0.21488239
-2.8981967	构	-0.21488239
-2.8981967	空	-0.21488239
-2.8981967	到了16世纪，算术、初等代数、以及三角学等初等数学已大体完备。17世纪变量概念的产生使人们开始研究变化中的量与量的互相关系和图形间的互相变换。在研究经典力学的过程中，发明了微积分。随着自然科学和技术的进一步发展，为研究数学基础而产生的集合论和数理逻辑等也开始慢慢发展。	-0.094984554
-2.6551394	到	-0.094984554
-2.6551394	初	-0.17113423
-2.8981967	三	-0.094984554
-2.8981967	角	-0.094984554
-2.6664026	已	-0.094984554
-2.4962227	大	-0.15080896
-2.8981967	完	-0.094984554
-2.8981967	备	-0.094984554
-2.8981967	7	-0.094984554
-2.4962227	变	-0.15080896
-2.6664026	们	-0.094984554
-2.8981967	化	-0.094984554
-2.6664026	互	-0.17113423
-2.8981967	图	-0.094984554
-2.8981967	换	-0.094984554
-2.8981967	经	-0.094984554
-2.8981967	典	-0.094984554
-2.8981967	力	-0.094984554
-2.6664026	过	-0.094984554
-2.8981967	程	-0.094984554
-2.6551394	明	-0.13139251
-2.6664026	微	-0.21488239
-2.6664026	积	-0.30468577
-2.6551394	分	-0.094984554
-2.8981967	随	-0.094984554
-2.8981967	然	-0.21488239
-2.6664026	步	-0.094984554
-2.8981967	集	-0.094984554
-2.8981967	合	-0.094984554
-2.4962227	论	-0.094984554
-2.8981967	逻	-0.094984554
-2.8981967	辑	-0.094984554
-2.6664026	也	-0.094984554
-2.6664026	慢	-0.094984554
-2.8981967	数学从古至今便一直不断地延展，且与科学有丰富的相互作用，并使两者都得到好处。数学在历史上有著许多的发现，并且直至今日都还不断地发现中。依据Mikhail	-0.094984554
-2.8981967	B.	-0.094984554
-2.8981967	Sevryuk于美国数学会通报2006年1月的期刊中所说，“存在于数学评论资料库中论文和书籍的数量自1940年(数学评论的创刊年份)现已超过了一百九十万份，而且每年还增加超过七万五千份的细目。此一学海的绝大部份为新的数学定理及其证明。”	-0.094984554
-2.8981967	延	-0.094984554
-2.8981967	丰	-0.094984554
-2.8981967	富	-0.094984554
-2.8981967	并	-0.094984554
-2.8981967	两	-0.094984554
-2.6551394	者	-0.094984554
-2.6551394	都	-0.094984554
-2.6551394	得	-0.17113423
-2.8981967	好	-0.094984554
-2.8981967	处	-0.094984554
-2.6551394	著	-0.094984554
-2.6551394	许	-0.30468577
-2.8981967	依	-0.094984554
-2.8981967	据	-0.094984554
-2.8981967	M	-0.094984554
-2.8981967	l	-0.094984554
-2.8981967	B	-0.094984554
-2.8981967	.	-0.094984554
-2.8981967	S	-0.094984554
-2.8981967	v	-0.094984554
-2.8981967	r	-0.094984554
-2.8981967	y	-0.094984554
-2.8981967	u	-0.094984554
-2.6664026	通	-0.094984554
-2.8981967	报	-0.094984554
-2.8981967	2	-0.094984554
-2.6551394	0	-0.094984554
-2.4962227	年	-0.094984554
-2.8981967	月	-0.094984554
-2.6664026	刊	-0.094984554
-2.6551394	所	-0.094984554
-2.8981967	说	-0.094984554
-2.6551394	存	-0.30468577
-2.8981967	评	-0.21488239
-2.8981967	资	-0.094984554
-2.8981967	料	-0.094984554
-2.8981967	库	-0.094984554
-2.6551394	书	-0.17113423
-2.8981967	籍	-0.094984554
-2.8981967	9	-0.094984554
-2.8981967	4	-0.094984554
-2.8981967	(	-0.094984554
-2.8981967	创	-0.094984554
-2.4962227	份	-0.094984554
-2.8981967	)	-0.094984554
-2.6664026	超	-0.21488239
-2.8981967	百	-0.094984554
-2.8981967	九	-0.094984554
-2.6664026	十	-0.094984554
-2.8981967	每	-0.094984554
-2.8981967	增	-0.094984554
-2.8981967	七	-0.094984554
-2.8981967	五	-0.094984554
-2.8981967	千	-0.094984554
-2.8981967	细	-0.094984554
-2.8981967	目	-0.094984554
-2.8981967	海	-0.094984554
-2.8981967	绝	-0.094984554
-2.8981967	部	-0.094984554
-2.8981967	定	-0.094984554
-2.8981967	证	-0.094984554
-2.8981967	数学出现于包含著数量、结构、空间及变化等困难问题内。一开始，出现于贸易、土地测量及之后的天文学；今日，所有的科学都存在著值得数学家研究的问题，且数学本身亦存在了许多的问题。牛顿和莱布尼兹是微积分的发明者，费曼发明了费曼路径积分，来用于推理及物理的洞察，而今日的弦理论亦生成为新的数学。一些数学只和生成它的领域有关，且用来解答此领域的更多问题。但一般被一领域生成的数学在其他许多领域内也十分有用，且成为数学概念的一般知识。即使是“最纯的”数学通常亦有实际的用途，此一卓越的事实，被维格纳称为“数学在自然科学中不可想像的有效性”。	-0.094984554
-2.4962227	出	-0.21488239
-2.6664026	包	-0.21488239
-2.8981967	含	-0.21488239
-2.8981967	困	-0.094984554
-2.6664026	难	-0.094984554
-2.8981967	题	-0.15080896
-2.6664026	后	-0.094984554
-2.8981967	值	-0.094984554
-2.6664026	家	-0.094984554
-2.8981967	身	-0.094984554
-2.8981967	牛	-0.094984554
-2.8981967	顿	-0.094984554
-2.8981967	莱	-0.094984554
-2.8981967	布	-0.094984554
-2.8981967	尼	-0.094984554
-2.8981967	兹	-0.094984554
-2.6664026	费	-0.21488239
-2.8981967	曼	-0.094984554
-2.8981967	路	-0.094984554
-2.8981967	径	-0.094984554
-2.8981967	推	-0.094984554
-2.8981967	洞	-0.094984554
-2.8981967	察	-0.094984554
-2.8981967	弦	-0.094984554
-2.8981967	只	-0.094984554
-2.4962227	领	-0.4296245
-2.8981967	域	-0.094984554
-2.8981967	答	-0.094984554
-2.6664026	更	-0.094984554
-2.6664026	但	-0.094984554
-2.8981967	般	-0.094984554
-2.8981967	他	-0.094984554
-2.8981967	最	-0.094984554
-2.8981967	纯	-0.094984554
-2.6664026	常	-0.094984554
-2.6664026	实	-0.094984554
-2.8981967	际	-0.094984554
-2.8981967	途	-0.094984554
-2.8981967	卓	-0.094984554
-2.8981967	越	-0.094984554
-2.8981967	维	-0.094984554
-2.8981967	格	-0.094984554
-2.8981967	纳	-0.094984554
-2.8981967	称	-0.094984554
-2.8981967	想	-0.094984554
-2.8981967	像	-0.094984554
-2.8981967	效	-0.094984554
-2.8981967	我们现今所使用的大部分数学符号在16世纪后才被发明出来的。在此之前，数学以文字的形式书写出来，这种形式会限制了数学的发展。现今的符号使得数学对于专家而言更容易去控作，但初学者却常对此感到怯步。它被极度的压缩：少量的符号包含著大量的讯息。如同音乐符号一般，现今的数学符号有明确的语法和难以以其他方法书写的讯息编码。	-0.094984554
-2.8981967	我	-0.094984554
-2.6551394	符	-0.5265345
-2.8981967	号	-0.094984554
-2.8981967	才	-0.094984554
-2.8981967	前	-0.094984554
-2.8981967	写	-0.094984554
-2.8981967	种	-0.094984554
-2.8981967	限	-0.094984554
-2.8981967	制	-0.094984554
-2.8981967	专	-0.094984554
-2.8981967	去	-0.094984554
-2.8981967	控	-0.094984554
-2.8981967	却	-0.094984554
-2.8981967	感	-0.094984554
-2.8981967	怯	-0.094984554
-2.8981967	极	-0.094984554
-2.8981967	压	-0.094984554
-2.8981967	缩	-0.094984554
-2.8981967	：	-0.094984554
-2.8981967	少	-0.094984554
-2.8981967	讯	-0.21488239
-2.8981967	息	-0.094984554
-2.8981967	如	-0.094984554
-2.8981967	同	-0.094984554
-2.8981967	音	-0.094984554
-2.8981967	乐	-0.094984554
-2.8981967	确	-0.094984554
-2.8981967	编	-0.094984554
-2.8981967	码	-0.094984554

\2-grams:
-0.28644451	<s> </s>
-0.68596846	数学 </s>
-1.9122149	学 </s>
-0.68596846	基础数学的知识与运用总是个人与团体生活中不可或缺的一块。其基本概念的精炼早在古埃及、美索不达米亚及古印度内的古代数学文本内便可观见。从那时开始，其发展便持续不断地有小幅的进展，直至16世纪的文艺复兴时期，因为和新的科学发现相作用而产生的数学革新导致了知识的加速发展，直至今日。 </s>
-0.70520604	。 </s>
-0.68596846	，此一希腊语被亚里士多德拿来指“万物皆数”的概念。 </s>
-1.5195589	” </s>
-0.68596846	意思是“学问的基础”，源于（máthema）（“科学，知识，学问”）。 </s>
-0.68596846	从历史时代的一开始，数学内的主要原理是为了做税务和贸易等相关计算，为了了解数字间的关系，为了测量土地，以及为了预测天文事件而形成的。这些需要可以简单地被概括为数学对数量、结构、空间及时间方面的研究。 </s>
-0.68596846	到了16世纪，算术、初等代数、以及三角学等初等数学已大体完备。17世纪变量概念的产生使人们开始研究变化中的量与量的互相关系和图形间的互相变换。在研究经典力学的过程中，发明了微积分。随着自然科学和技术的进一步发展，为研究数学基础而产生的集合论和数理逻辑等也开始慢慢发展。 </s>
-0.68596846	Sevryuk于美国数学会通报2006年1月的期刊中所说，“存在于数学评论资料库中论文和书籍的数量自1940年(数学评论的创刊年份)现已超过了一百九十万份，而且每年还增加超过七万五千份的细目。此一学海的绝大部份为新的数学定理及其证明。” </s>
-0.68596846	数学出现于包含著数量、结构、空间及变化等困难问题内。一开始，出现于贸易、土地测量及之后的天文学；今日，所有的科学都存在著值得数学家研究的问题，且数学本身亦存在了许多的问题。牛顿和莱布尼兹是微积分的发明者，费曼发明了费曼路径积分，来用于推理及物理的洞察，而今日的弦理论亦生成为新的数学。一些数学只和生成它的领域有关，且用来解答此领域的更多问题。但一般被一领域生成的数学在其他许多领域内也十分有用，且成为数学概念的一般知识。即使是“最纯的”数学通常亦有实际的用途，此一卓越的事实，被维格纳称为“数学在自然科学中不可想像的有效性”。 </s>
-0.68596846	我们现今所使用的大部分数学符号在16世纪后才被发明出来的。在此之前，数学以文字的形式书写出来，这种形式会限制了数学的发展。现今的符号使得数学对于专家而言更容易去控作，但初学者却常对此感到怯步。它被极度的压缩：少量的符号包含著大量的讯息。如同音乐符号一般，现今的数学符号有明确的语法和难以以其他方法书写的讯息编码。 </s>
-2.2707794	<s> 数学
-1.145109	<s> 数
-1.0689198	础 数
-1.0857214	的 数
-1.671253	。 数
-0.6773554	代 数
-1.287081	， 数
-0.28918055	复 数
-1.1241486	为 数
-1.4035289	和 数
-1.4411181	了 数
-0.53123826	“ 数
-1.4074017	” 数
-1.3801633	于 数
-1.4708159	" 数
-1.3195953	且 数
-1.279139	究 数
-0.664965	皆 数
-0.9278727	国 数
-1.279139	等 数
-0.9278727	解 数
-0.9278727	些 数
-1.0689198	对 数
-1.2281696	分 数
-0.55775356	得 数
-1.1614321	著 数
-0.664965	( 数
-0.15342657	数 学
-1.7301409	一 学
-1.4865514	文 学
-1.9487033	， 学
-1.5574229	和 学
-0.10256958	科 学
-1.5534002	“ 学
-1.1418302	" 学
-1.1411809	初 学
-0.6892919	角 学
-0.6892919	力 学
-2.2707794	<s> 基础数学的知识与运用总是个人与团体生活中不可或缺的一块。其基本概念的精炼早在古埃及、美索不达米亚及古印度内的古代数学文本内便可观见。从那时开始，其发展便持续不断地有小幅的进展，直至16世纪的文艺复兴时期，因为和新的科学发现相作用而产生的数学革新导致了知识的加速发展，直至今日。
-2.2185671	<s> 基
-2.2117946	学 基
-2.3007996	的 基
-1.6152327	其 基
-0.42151272	基 础
-1.0706108	学 的
-1.0487692	识 的
-1.2516135	用 的
-0.8872956	生 的
-0.99106634	中 的
-0.62577975	缺 的
-0.390572	念 的
-0.8585836	度 的
-0.7854476	内 的
-0.6464653	代 的
-1.1882751	文 的
-1.2834303	有 的
-0.62577975	幅 的
-1.0487692	纪 的
-0.9757259	期 的
-0.390572	新 的
-0.90449476	今 的
-1.0487692	日 的
-1.2048583	语 的
-1.2444795	” 的
-1.2520542	问 的
-0.9757259	术 的
-0.9757259	性 的
-1.136632	究 的
-1.1210756	关 的
-0.62577975	功 的
-1.156334	来 的
-0.9757259	面 的
-0.8585836	上 的
-0.71556866	多 的
-0.62577975	远 的
-1.0031714	它 的
-1.156334	理 的
-0.8585836	字 的
-0.72442466	间 的
-0.73293424	量 的
-0.72442466	成 的
-1.0993283	分 的
-1.0993283	论 的
-0.62577975	富 的
-0.62577975	月 的
-0.62577975	籍 的
-1.0487692	份 的
-0.62577975	海 的
-0.8585836	后 的
-1.0487692	域 的
-0.62577975	纯 的
-0.62577975	际 的
-0.62577975	越 的
-0.62577975	像 的
-0.8585836	写 的
-0.62577975	确 的
-2.3007996	的 知
-2.1743073	， 知
-1.7227645	了 知
-1.1672037	般 知
-0.20161629	知 识
-1.286723	识 与
-1.1672037	人 与
-1.5138973	且 与
-1.6617506	量 与
-1.299927	与 运
-2.0806339	的 用
-0.6926409	运 用
-1.7126849	有 用
-0.57569754	作 用
-1.6560359	" 用
-1.4614978	且 用
-1.4063642	使 用
-1.5079893	被 用
-1.4121809	来 用
-1.6869277	用 总
-0.6994175	总 是
-1.4426175	使 是
-0.6994175	思 是
-1.4458703	理 是
-0.6994175	兹 是
-1.3887638	是 个
-1.8305345	有 个
-0.9999982	个 人
-1.6269956	于 人
-1.4619461	使 人
-1.299927	与 团
-0.7029456	团 体
-1.2955524	大 体
-2.1990223	的 生
-0.98988295	体 生
-1.6238106	和 生
-0.41897228	产 生
-1.2737166	亦 生
-1.2737166	域 生
-1.5861194	生 活
-1.2980349	产 活
-1.9631858	学 中
-2.0165248	的 中
-0.97353077	活 中
-1.5462599	现 中
-0.97819084	语 中
-0.97353077	言 中
-0.97353077	； 中
-0.97353077	化 中
-0.6892919	程 中
-0.97353077	刊 中
-0.6892919	库 中
-1.1666672	中 不
-0.6994175	索 不
-0.6994175	续 不
-1.288208	直 不
-1.162219	还 不
-0.87953913	不 可
-1.1672037	便 可
-2.1743073	， 可
-0.9966002	要 可
-1.3869904	可 或
-1.7472986	" 或
-1.00332	或 缺
-1.9369531	学 一
-1.5322211	的 一
-1.4762359	。 一
-1.1288421	便 一
-0.970333	进 一
-1.5982962	了 一
-1.5295161	” 一
-1.4762168	被 一
-0.58628356	此 一
-1.1288421	之 一
-0.970333	但 一
-1.317528	号 一
-1.9050012	一 块
-1.6909477	学 。
-1.563192	的 。
-1.1664077	识 。
-1.4698468	中 。
-0.66654503	块 。
-1.2027633	念 。
-0.8353715	内 。
-0.66654503	见 。
-0.90865743	展 。
-1.1664077	日 。
-1.4150724	” 。
-1.4797776	" 。
-1.2856753	究 。
-1.0729363	史 。
-1.0729363	） 。
-0.66654503	备 。
-0.66654503	换 。
-1.2987187	明 。
-1.2339772	分 。
-0.93077177	步 。
-0.66654503	处 。
-0.66654503	目 。
-0.6738514	题 。
-0.93077177	息 。
-0.66654503	码 。
-1.2627113	。 其
-1.2292202	在 其
-1.6735123	及 其
-1.6792228	， 其
-1.5105659	以 其
-2.2625852	学 本
-1.2977551	基 本
-1.5794926	文 本
-2.1663268	学 概
-2.246936	的 概
-1.162219	本 概
-1.5543271	被 概
-1.6488426	量 概
-0.2983509	概 念
-2.4316447	的 精
-0.70451844	精 炼
-0.7029456	炼 早
-0.7029456	类 早
-1.4454896	学 在
-1.4992934	。 在
-1.5533077	其 在
-0.979998	早 在
-1.6135124	及 在
-1.2610681	词 在
-1.4063642	使 在
-0.29396868	存 在
-1.3393265	号 在
-2.1990223	的 古
-1.7441593	在 古
-1.6577175	及 古
-1.1572909	从 古
-1.5856704	于 古
-0.98988295	国 古
-1.4726921	古 埃
-0.696016	埃 及
-0.9865629	亚 及
-2.0630727	， 及
-0.6571942	以 及
-0.8708793	理 及
-0.79563737	间 及
-1.6241237	量 及
-2.2480562	数 、
-1.642477	及 、
-1.158791	" 、
-1.1524181	术 、
-1.1524181	易 、
-1.0852512	量 、
-0.40446976	构 、
-1.6751816	、 美
-1.6278336	于 美
-1.00332	美 索
-1.4752082	不 达
-0.70451844	达 米
-0.7029456	米 亚
-1.5802437	被 亚
-1.4726921	古 印
-0.7029456	印 度
-0.7029456	极 度
-2.1251712	学 内
-1.1572909	本 内
-0.98988295	度 内
-1.3662857	源 内
-1.2778032	题 内
-1.2737166	域 内
-0.88030165	古 代
-1.2933753	时 代
-1.4619461	等 代
-2.0875802	学 文
-2.155873	的 文
-1.2788663	腊 文
-1.49247	以 文
-0.696016	丁 文
-0.40446976	天 文
-1.3544915	论 文
-1.4655584	内 便
-1.5350176	展 便
-1.5892452	今 便
-1.3946424	可 观
-0.70451844	观 见
-2.2442858	<s> 从
-2.2625852	学 从
-2.0927532	。 从
-1.1771941	从 那
-1.6899034	及 时
-0.70112824	那 时
-0.70112824	兴 时
-1.1672037	史 时
-1.317296	一 开
-1.286723	时 开
-0.9966002	们 开
-0.9966002	也 开
-0.15311214	开 始
-1.9595797	数 ，
-1.5884691	学 ，
-1.6169173	的 ，
-1.1281134	识 ，
-0.9958655	用 ，
-1.4014834	中 ，
-0.4920986	始 ，
-0.42625275	展 ，
-1.2359487	地 ，
-1.1281134	纪 ，
-1.0417985	期 ，
-1.3708366	现 ，
-1.0617386	作 ，
-1.1281134	日 ，
-0.72085583	” ，
-1.1463207	词 ，
-1.0588105	" ，
-1.2063074	关 ，
-1.25146	来 ，
-1.1281134	式 ，
-0.38771775	' ，
-0.9081043	算 ，
-0.9081043	系 ，
-1.1895559	分 ，
-1.0417985	者 ，
-0.6540625	说 ，
-1.1281134	份 ，
-1.1463207	题 ，
-0.6540625	察 ，
-1.0417985	般 ，
-0.9081043	实 ，
-0.6540625	途 ，
-0.6540625	前 ，
-1.9911057	学 发
-1.5522157	的 发
-1.5419158	其 发
-1.9745975	， 发
-1.3977547	地 发
-0.69096315	速 发
-1.497138	被 发
-0.97675234	步 发
-0.97675234	慢 发
-0.97675234	曼 发
-0.53233695	发 展
-0.9999982	进 展
-0.7028458	延 展
-1.1771941	便 持
-0.70451844	持 续
-0.5971625	不 断
-0.29646093	断 地
-0.40710533	土 地
-0.7028458	单 地
-1.6090499	学 有
-1.935229	的 有
-1.4991205	其 有
-1.3649284	地 有
-1.225268	方 有
-0.9640071	习 有
-1.1197587	还 有
-1.225268	亦 有
-0.9640071	上 有
-0.6843163	就 有
-1.3035806	分 有
-1.1197587	所 有
-1.225268	域 有
-1.3035806	号 有
-1.8514128	有 小
-0.70451844	小 幅
-1.9148071	的 进
-1.8823206	一 直
-1.7071321	， 直
-1.525181	且 直
-1.4637486	古 至
-0.42089063	直 至
-0.7028458	溯 至
-2.008595	。 1
-1.7441593	在 1
-1.3718841	至 1
-1.6881471	了 1
-1.3662857	自 1
-1.2737166	年 1
-0.59602857	1 6
-1.1725402	0 6
-0.42092776	6 世
-0.7029456	7 世
-0.20161629	世 纪
-1.5802437	文 艺
-0.7029456	六 艺
-2.246936	的 复
-1.5543271	文 复
-0.99322855	艺 复
-1.162219	性 复
-1.162219	面 复
-1.3993723	复 兴
-2.3623018	的 期
-0.9999982	早 期
-1.2933753	时 期
-2.2667322	， 因
-1.3385365	是 为
-1.5997236	及 为
-1.3849975	， 为
-0.69096315	因 为
-0.97675234	义 为
-0.69096315	认 为
-0.7905088	成 为
-0.69096315	括 为
-1.2488171	份 为
-0.69096315	称 为
-1.9911057	学 和
-1.497138	文 和
-1.6851959	为 和
-1.6426568	" 和
-1.1381196	法 和
-0.69096315	务 和
-0.97675234	系 和
-1.331938	论 和
-0.69096315	顿 和
-0.69096315	只 和
-1.2118473	为 新
-1.6691339	和 新
-0.7028458	革 新
-1.8498831	的 科
-1.2801712	与 科
-1.6130301	“ 科
-1.7140995	" 科
-0.40578553	然 科
-2.008595	。 现
-2.0970805	， 现
-0.89292246	发 现
-0.98988295	们 现
-0.6977134	) 现
-0.70270824	出 现
-2.3007996	的 相
-1.6211323	现 相
-1.4521743	等 相
-0.5811194	互 相
-1.3883268	相 作
-1.1740963	互 作
-0.7028458	控 作
-1.162219	础 而
-1.644546	用 而
-1.6792228	， 而
-0.6994175	件 而
-0.99322855	家 而
-2.3623018	的 产
-1.5855131	生 产
-0.88030165	而 产
-2.3182728	学 革
-1.3024623	新 导
-0.70451844	导 致
-1.7090666	在 了
-0.70418334	为 了
-0.6943252	致 了
-1.6560864	了 了
-1.1475995	到 了
-1.1475995	过 了
-0.8685553	明 了
-0.6943252	制 了
-2.366147	的 加
-0.7029456	增 加
-1.00332	加 速
-0.5164284	至 今
-0.76913655	现 今
-1.4547174	而 今
-0.9966002	； 今
-0.50202954	今 日
-2.2707794	<s> 西方语言中“数学”一词源自于古希腊语的，其有"学习"、"学问"、"科学"，以及另外还有个较狭意且技术性的意义－“数学研究”，即使在其语源内。其形容词
-0.70451844	西方语言中“数学”一词源自于古希腊语的，其有"学习"、"学问"、"科学"，以及另外还有个较狭意且技术性的意义－“数学研究”，即使在其语源内。其形容词 ，意义为"和学习有关的"或"用功的"，亦会被用来指"数学的"。其在英语中表面上的复数形式，及在法语中的表面复数形式
-0.70451844	，意义为"和学习有关的"或"用功的"，亦会被用来指"数学的"。其在英语中表面上的复数形式，及在法语中的表面复数形式 '，可溯至拉丁文的中性复数
-0.70451844	'，可溯至拉丁文的中性复数 '，由西塞罗译自希腊文复数
-0.70451844	'，由西塞罗译自希腊文复数 ，此一希腊语被亚里士多德拿来指“万物皆数”的概念。
-2.2442858	<s> 西
-1.8027661	在 西
-0.7028458	由 西
-0.58221203	西 方
-1.3901525	间 方
-0.9999982	他 方
-2.1990223	的 语
-1.5893939	其 语
-1.2737166	方 语
-0.41897228	腊 语
-0.6977134	英 语
-1.1572909	法 语
-1.4642776	而 言
-1.5819732	语 言
-0.792436	是 “
-1.6652071	中 “
-2.0315351	， “
-1.7300657	有 “
-1.7110847	为 “
-0.6943252	－ “
-0.983268	指 “
-1.1532338	（ “
-1.7250426	数 ”
-2.0529857	学 ”
-1.1475995	础 ”
-2.116626	的 ”
-1.9603703	。 ”
-1.4946144	问 ”
-1.1475995	性 ”
-1.4151478	究 ”
-1.3235431	一 词
-1.5812644	语 词
-0.9999982	容 词
-2.1743073	， 源
-1.5692104	语 源
-0.7046461	词 源
-0.70112824	起 源
-1.7628298	在 自
-1.3735092	源 自
-0.6994175	译 自
-0.99322855	着 自
-1.6488426	量 自
-1.6181719	用 于
-1.7262585	在 于
-1.0421016	现 于
-0.79435134	源 于
-1.3591805	自 于
-1.1524181	k 于
-1.1524181	对 于
-1.8601168	一 希
-1.4547174	古 希
-1.8075116	有 希
-1.3808548	自 希
-0.20161629	希 腊
-2.0209446	学 "
-1.5625693	的 "
-0.979998	或 "
-1.0777377	、 "
-1.7126849	有 "
-1.6979474	为 "
-0.979998	习 "
-1.4872926	问 "
-0.979998	指 "
-1.7828218	学 习
-1.4886101	学 问
-1.8706774	的 问
-1.3808548	多 问
-0.9966002	难 问
-2.1251712	学 以
-1.3622773	可 以
-1.63488	、 以
-1.6659131	， 以
-1.5014237	以 以
-0.98988295	难 以
-1.7241249	及 另
-0.70451844	另 外
-0.7028458	外 还
-1.1722462	都 还
-1.2933753	年 还
-1.00332	个 较
-0.70451844	较 狭
-2.3007996	的 意
-2.1743073	， 意
-0.70112824	狭 意
-0.70112824	, 意
-1.2178316	， 且
-1.4547174	而 且
-1.2893293	意 且
-0.9966002	并 且
-1.6700575	和 技
-1.5258439	且 技
-0.4071436	技 术
-1.0001959	算 术
-1.7446008	中 性
-1.1722462	术 性
-0.7028458	效 性
-0.7076502	意 义
-1.00332	义 －
-2.1251712	学 研
-2.1990223	的 研
-1.7441593	在 研
-1.3718841	始 研
-1.738615	为 研
-0.98988295	家 研
-0.123546004	研 究
-2.0945506	。 即
-2.2214878	， 即
-1.5650879	生 使
-0.40578553	即 使
-0.99322855	并 使
-1.162219	所 使
-1.3702052	号 使
-1.7345951	数 形
-2.1990223	的 形
-1.5893939	其 形
-1.4371998	而 形
-0.6977134	图 形
-0.6977134	种 形
-1.5336651	形 容
-1.0001959	更 容
-2.3623018	的 关
-1.2695382	有 关
-0.8020983	相 关
-1.6869277	用 功
-2.1743073	， 亦
-1.3782805	论 亦
-0.70112824	身 亦
-0.9966002	常 亦
-2.2625852	学 会
-1.2933753	亦 会
-1.2933753	式 会
-2.0630727	， 被
-1.4241127	地 被
-1.5349344	语 被
-1.1524181	会 被
-0.5778582	它 被
-1.1524181	般 被
-0.696016	才 被
-1.0948763	用 来
-2.1743073	， 来
-0.70112824	拿 来
-0.70532686	出 来
-0.8826177	来 指
-1.8235434	在 英
-2.366147	的 表
-1.7456114	中 表
-1.2937639	方 面
-0.4071436	表 面
-1.1725402	面 上
-1.1725402	史 上
-0.4441283	形 式
-1.8027661	在 法
-1.2933753	方 法
-1.5812644	语 法
-2.3171992	数 '
-1.2937639	式 '
-1.3946424	可 溯
-1.3971648	至 拉
-0.70451844	拉 丁
-2.2667322	， 由
-1.1782625	西 塞
-0.70451844	塞 罗
-0.70451844	罗 译
-2.0348766	。 此
-1.7628298	在 此
-1.6792228	， 此
-1.162219	对 此
-0.6994175	答 此
-1.00332	亚 里
-0.70451844	里 士
-0.7028458	士 多
-0.29646093	许 多
-0.9999982	更 多
-1.3956999	多 德
-0.70451844	德 拿
-1.6348764	“ 万
-0.9999982	十 万
-0.7028458	七 万
-1.7079451	及 物
-1.1725402	万 物
-1.00332	物 皆
-2.2707794	<s> 数学有着久远的历史。它被认为起源于人类早期的生产活动；中国古代的六艺之一就有“数”，数学一词在西方有希腊语词源（mathematikós）,
-0.70451844	数学有着久远的历史。它被认为起源于人类早期的生产活动；中国古代的六艺之一就有“数”，数学一词在西方有希腊语词源（mathematikós）, 意思是“学问的基础”，源于（máthema）（“科学，知识，学问”）。
-1.8305345	有 着
-0.7029456	随 着
-1.00332	着 久
-0.70451844	久 远
-2.3623018	的 历
-1.8027661	在 历
-1.1722462	从 历
-0.29686517	历 史
-1.5499556	。 它
-1.3905444	成 它
-1.592244	被 认
-1.7990489	为 起
-1.1771941	人 类
-1.00332	活 动
-2.2657185	学 ；
-0.7029456	动 ；
-1.7456114	中 国
-1.0001959	美 国
-2.4316447	的 六
-1.7069374	及 之
-0.9999982	艺 之
-1.4662504	此 之
-1.9050012	一 就
-1.3883268	源 （
-1.6269956	于 （
-1.1722462	） （
-0.5822754	（ m
-0.5822754	e m
-0.42092776	m a
-1.1743441	h a
-0.70625675	a t
-0.7029456	á t
-0.5822754	t h
-1.1725402	k h
-0.5822754	h e
-0.7029456	S e
-1.2952092	a i
-1.1740963	t i
-0.7028458	M i
-0.5822754	i k
-0.7029456	u k
-1.1771941	k ó
-0.70451844	ó s
-1.6311913	” ）
-1.2952092	a ）
-0.7028458	s ）
-1.1771941	） ,
-1.3009899	意 思
-1.3024623	m á
-2.2707794	<s> 从历史时代的一开始，数学内的主要原理是为了做税务和贸易等相关计算，为了了解数字间的关系，为了测量土地，以及为了预测天文事件而形成的。这些需要可以简单地被概括为数学对数量、结构、空间及时间方面的研究。
-2.4316447	的 主
-0.7029456	主 要
-0.7029456	需 要
-1.00332	要 原
-2.2641006	数 理
-0.98988295	物 理
-0.6977134	原 理
-0.6977134	定 理
-0.6977134	推 理
-0.6977134	弦 理
-1.7597938	了 做
-0.70451844	做 税
-0.70451844	税 务
-1.6700575	和 贸
-1.6278336	于 贸
-1.0001959	容 易
-0.4071436	贸 易
-2.1663268	学 等
-1.162219	易 等
-0.5800296	初 等
-0.99322855	化 等
-0.6994175	辑 等
-1.3956999	关 计
-2.2214878	， 算
-0.7029456	计 算
-1.7422566	了 解
-1.4642776	来 解
-2.3171992	数 字
-1.5802437	文 字
-1.286723	时 间
-1.5252016	形 间
-0.9966002	字 间
-0.4064449	空 间
-0.803998	关 系
-1.4619461	地 测
-1.7411661	了 测
-0.7028458	预 测
-1.4572252	数 量
-2.155873	的 量
-1.2673566	与 量
-0.5778582	测 量
-1.2721529	大 量
-1.2721529	变 量
-0.696016	少 量
-1.6751816	、 土
-1.6758373	量 土
-1.7597938	了 预
-2.366147	的 天
-1.1743441	测 天
-2.366147	的 事
-1.5802437	文 事
-1.00332	事 件
-0.7201348	生 成
-1.525181	且 成
-1.5331973	形 成
-2.0945506	。 这
-2.2214878	， 这
-1.8836427	一 些
-1.0001959	这 些
-1.00332	些 需
-1.5389113	以 简
-0.70451844	简 单
-1.3993723	概 括
-1.7668378	学 对
-1.0001959	常 对
-1.1027668	、 结
-0.40774685	结 构
-1.1027668	、 空
-2.2707794	<s> 到了16世纪，算术、初等代数、以及三角学等初等数学已大体完备。17世纪变量概念的产生使人们开始研究变化中的量与量的互相关系和图形间的互相变换。在研究经典力学的过程中，发明了微积分。随着自然科学和技术的进一步发展，为研究数学基础而产生的集合论和数理逻辑等也开始慢慢发展。
-2.2442858	<s> 到
-1.1740963	得 到
-0.7028458	感 到
-1.6743822	、 初
-1.4619461	等 初
-0.9999982	但 初
-1.7241249	及 三
-0.70451844	三 角
-2.2657185	学 已
-1.6336609	现 已
-2.3007996	的 大
-0.9966002	已 大
-1.286723	著 大
-0.70112824	绝 大
-1.00332	体 完
-0.70451844	完 备
-1.4741498	1 7
-1.6899034	及 变
-1.286723	纪 变
-1.3808548	相 变
-1.4521743	究 变
-1.1725402	人 们
-0.7029456	我 们
-0.7076502	变 化
-1.8938172	的 互
-1.3887638	相 互
-1.6848623	和 图
-1.3009899	变 换
-1.47164	究 经
-0.70451844	经 典
-0.70451844	典 力
-2.366147	的 过
-0.4071436	超 过
-1.1771941	过 程
-0.67735934	发 明
-1.8292415	有 明
-0.7028458	证 明
-1.3887638	是 微
-1.7422566	了 微
-0.4071436	微 积
-0.7029456	径 积
-0.29646093	积 分
-0.9999982	十 分
-0.9999982	部 分
-2.1238692	。 随
-0.803998	自 然
-1.8836427	一 步
-0.7029456	怯 步
-2.4316447	的 集
-0.70451844	集 合
-1.7275184	中 论
-1.4547174	理 论
-0.70112824	合 论
-0.4064449	评 论
-1.4726921	理 逻
-0.70451844	逻 辑
-1.4660432	内 也
-1.4625192	等 也
-1.3912252	始 慢
-1.0001959	慢 慢
-2.2707794	<s> 数学从古至今便一直不断地延展，且与科学有丰富的相互作用，并使两者都得到好处。数学在历史上有著许多的发现，并且直至今日都还不断地发现中。依据Mikhail
-0.70451844	数学从古至今便一直不断地延展，且与科学有丰富的相互作用，并使两者都得到好处。数学在历史上有著许多的发现，并且直至今日都还不断地发现中。依据Mikhail B.
-0.70451844	B. Sevryuk于美国数学会通报2006年1月的期刊中所说，“存在于数学评论资料库中论文和书籍的数量自1940年(数学评论的创刊年份)现已超过了一百九十万份，而且每年还增加超过七万五千份的细目。此一学海的绝大部份为新的数学定理及其证明。”
-1.47164	地 延
-1.8514128	有 丰
-0.70451844	丰 富
-1.7213428	， 并
-1.47164	使 两
-2.2625852	学 者
-1.4637486	明 者
-0.7028458	两 者
-2.2625852	学 都
-1.2933753	日 都
-1.1722462	者 都
-1.4619461	使 得
-1.1722462	都 得
-0.7028458	值 得
-1.1771941	到 好
-0.70451844	好 处
-1.8027661	在 著
-1.8292415	有 著
-0.40710533	含 著
-1.7411661	了 许
-1.2933753	著 许
-0.9999982	他 许
-2.1238692	。 依
-0.70451844	依 据
-0.70451844	据 M
-1.1782625	i l
-0.70451844	l B
-0.70451844	B .
-0.70451844	. S
-1.1782625	e v
-0.70451844	v r
-0.70451844	r y
-0.70451844	y u
-2.2657185	学 通
-1.1725402	会 通
-1.00332	通 报
-0.70451844	报 2
-0.7028458	2 0
-1.1722462	0 0
-0.7028458	4 0
-1.2929554	6 年
-1.1672037	0 年
-0.9966002	刊 年
-0.70112824	每 年
-1.4741498	1 月
-1.1725402	期 刊
-0.7029456	创 刊
-1.7446008	中 所
-2.2187667	， 所
-1.5892452	今 所
-1.1771941	所 说
-1.6348764	“ 存
-1.2933753	亦 存
-1.1722462	都 存
-1.7828218	学 评
-1.3946424	论 资
-0.70451844	资 料
-0.70451844	料 库
-1.6691339	和 书
-1.2933753	式 书
-1.1722462	法 书
-1.1782625	书 籍
-1.4741498	1 9
-0.70451844	9 4
-1.299927	年 (
-2.4316447	的 创
-1.1672037	万 份
-1.286723	年 份
-0.70112824	千 份
-0.9966002	部 份
-1.299927	份 )
-1.0001959	加 超
-1.0001959	已 超
-1.9050012	一 百
-0.70451844	百 九
-1.0001959	也 十
-0.7029456	九 十
-1.536414	且 每
-1.1771941	还 增
-1.1771941	过 七
-1.1771941	万 五
-0.70451844	五 千
-2.4316447	的 细
-0.70451844	细 目
-2.3182728	学 海
-2.4316447	的 绝
-0.7076502	大 部
-2.3182728	学 定
-1.642282	其 证
-2.2707794	<s> 数学出现于包含著数量、结构、空间及变化等困难问题内。一开始，出现于贸易、土地测量及之后的天文学；今日，所有的科学都存在著值得数学家研究的问题，且数学本身亦存在了许多的问题。牛顿和莱布尼兹是微积分的发明者，费曼发明了费曼路径积分，来用于推理及物理的洞察，而今日的弦理论亦生成为新的数学。一些数学只和生成它的领域有关，且用来解答此领域的更多问题。但一般被一领域生成的数学在其他许多领域内也十分有用，且成为数学概念的一般知识。即使是“最纯的”数学通常亦有实际的用途，此一卓越的事实，被维格纳称为“数学在自然科学中不可想像的有效性”。
-2.2117946	学 出
-2.1743073	， 出
-1.4547174	明 出
-0.9966002	写 出
-1.6278336	于 包
-1.3869904	号 包
-0.40774685	包 含
-1.47164	等 困
-1.6700575	和 难
-0.7029456	困 难
-0.4441283	问 题
-1.2937639	纪 后
-1.1725402	之 后
-1.299927	著 值
-2.2657185	学 家
-0.7029456	专 家
-1.1771941	本 身
-2.1238692	。 牛
-0.70451844	牛 顿
-1.6848623	和 莱
-0.70451844	莱 布
-0.70451844	布 尼
-0.70451844	尼 兹
-2.2214878	， 费
-1.7422566	了 费
-0.40774685	费 曼
-1.00332	曼 路
-0.70451844	路 径
-1.6412454	于 推
-2.4316447	的 洞
-0.70451844	洞 察
-2.4316447	的 弦
-2.3182728	学 只
-2.3007996	的 领
-1.8601168	一 领
-1.4582548	此 领
-1.3808548	多 领
-0.20161629	领 域
-1.00332	解 答
-2.366147	的 更
-1.0001959	言 更
-2.0945506	。 但
-2.2214878	， 但
-1.0464122	一 般
-1.0570289	其 他
-1.6458814	“ 最
-0.70451844	最 纯
-1.0001959	通 常
-0.7029456	却 常
-1.8305345	有 实
-1.0001959	事 实
-1.00332	实 际
-1.6869277	用 途
-1.9050012	一 卓
-0.70451844	卓 越
-1.592244	被 维
-0.70451844	维 格
-0.70451844	格 纳
-0.70451844	纳 称
-1.3946424	可 想
-0.70451844	想 像
-1.8514128	有 效
-2.2707794	<s> 我们现今所使用的大部分数学符号在16世纪后才被发明出来的。在此之前，数学以文字的形式书写出来，这种形式会限制了数学的发展。现今的符号使得数学对于专家而言更容易去控作，但初学者却常对此感到怯步。它被极度的压缩：少量的符号包含著大量的讯息。如同音乐符号一般，现今的数学符号有明确的语法和难以以其他方法书写的讯息编码。
-2.2707794	<s> 我
-1.7658421	学 符
-1.8925174	的 符
-0.7028458	乐 符
-0.15311214	符 号
-1.00332	后 才
-1.1771941	之 前
-0.5832745	书 写
-1.00332	这 种
-1.1771941	会 限
-0.70451844	限 制
-1.6412454	于 专
-1.1771941	易 去
-0.70451844	去 控
-1.1771941	者 却
-1.4741498	此 感
-1.1771941	到 怯
-1.592244	被 极
-2.4316447	的 压
-0.70451844	压 缩
-0.70451844	缩 ：
-0.70451844	： 少
-1.9148071	的 讯
-0.40774685	讯 息
-2.1238692	。 如
-0.70451844	如 同
-0.70451844	同 音
-0.70451844	音 乐
-1.4726921	明 确
-1.00332	息 编
-0.70451844	编 码

\end\
