\data\
ngram 1=412
ngram 2=1023
ngram 3=1213

\1-grams:
-3.0411115	<unk>	0
0	<s>	-0.4208029
-1.9212693	</s>	0
-2.8981967	数学	-0.075526565
-1.607386	数	-0.505248
-1.9985899	学	-0.10241917
-2.8981967	基础数学的知识与运用总是个人与团体生活中不可或缺的一块。其基本概念的精炼早在古埃及、美索不达米亚及古印度内的古代数学文本内便可观见。从那时开始，其发展便持续不断地有小幅的进展，直至16世纪的文艺复兴时期，因为和新的科学发现相作用而产生的数学革新导致了知识的加速发展，直至今日。	-0.075526565
-2.4962227	基	-0.1959475
-2.8981967	础	-0.075526565
-1.3000693	的	-0.14191149
-2.4962227	知	-0.36979735
-2.8981967	识	-0.075526565
-2.4962227	与	-0.075526565
-2.8981967	运	-0.075526565
-2.0927238	用	-0.12494353
-2.8981967	总	-0.075526565
-2.380133	是	-0.12494353
-2.6664026	个	-0.075526565
-2.6551394	人	-0.075526565
-2.8981967	团	-0.075526565
-2.6664026	体	-0.075526565
-2.28862	生	-0.14020857
-2.6664026	活	-0.075526565
-1.9985899	中	-0.116306975
-2.380133	不	-0.16904385
-2.4962227	可	-0.075526565
-2.6664026	或	-0.075526565
-2.8981967	缺	-0.075526565
-1.9582112	一	-0.13116431
-2.8981967	块	-0.075526565
-1.6249263	。	-0.20650814
-2.380133	其	-0.10228368
-2.6551394	本	-0.075526565
-2.380133	概	-0.29285753
-2.8981967	念	-0.075526565
-2.8981967	精	-0.075526565
-2.8981967	炼	-0.075526565
-2.6664026	早	-0.075526565
-2.0927238	在	-0.09253724
-2.28862	古	-0.116306975
-2.8981967	埃	-0.075526565
-2.2130744	及	-0.075526536
-2.2130744	、	-0.075526565
-2.6664026	美	-0.075526565
-2.8981967	索	-0.075526565
-2.8981967	达	-0.075526565
-2.8981967	米	-0.075526565
-2.6664026	亚	-0.075526565
-2.8981967	印	-0.075526565
-2.6664026	度	-0.075526565
-2.28862	内	-0.16131721
-2.6551394	代	-0.21153757
-2.2130744	文	-0.075526565
-2.6551394	便	-0.075526565
-2.8981967	观	-0.075526565
-2.8981967	见	-0.075526565
-2.6551394	从	-0.075526565
-2.8981967	那	-0.075526565
-2.4962227	时	-0.075526565
-2.4962227	开	-0.36979735
-2.8981967	始	-0.075526565
-1.5011673	，	-0.14970733
-2.0431113	发	-0.36979732
-2.6551394	展	-0.16904385
-2.8981967	持	-0.075526565
-2.8981967	续	-0.075526565
-2.8981967	断	-0.075526565
-2.6551394	地	-0.075526565
-1.887225	有	-0.09138222
-2.8981967	小	-0.075526565
-2.8981967	幅	-0.075526565
-2.8981967	进	-0.075526565
-2.6551394	直	-0.16131721
-2.6551394	至	-0.13822924
-2.28862	1	-0.15199152
-2.6664026	6	-0.075526565
-2.6664026	世	-0.21153757
-2.8981967	纪	-0.075526565
-2.6664026	艺	-0.075526565
-2.380133	复	-0.29285753
-2.8981967	兴	-0.075526565
-2.6551394	期	-0.075526565
-2.8981967	因	-0.075526565
-2.0431113	为	-0.15662934
-2.0431113	和	-0.075526565
-2.6551394	新	-0.16131721
-2.380133	科	-0.46670735
-2.28862	现	-0.13157652
-2.4962227	相	-0.12494353
-2.6551394	作	-0.16131721
-2.380133	而	-0.116306975
-2.6551394	产	-0.16131721
-2.8981967	革	-0.075526565
-2.8981967	导	-0.075526565
-2.8981967	致	-0.075526565
-2.1487434	了	-0.075526565
-2.6664026	加	-0.075526565
-2.8981967	速	-0.075526565
-2.4962227	今	-0.15199152
-2.8981967	日	-0.075526565
-2.8981967	西方语言中“数学”一词源自于古希腊语的，其有"学习"、"学问"、"科学"，以及另外还有个较狭意且技术性的意义－“数学研究”，即使在其语源内。其形容词	-0.075526565
-2.8981967	，意义为"和学习有关的"或"用功的"，亦会被用来指"数学的"。其在英语中表面上的复数形式，及在法语中的表面复数形式	-0.075526565
-2.8981967	'，可溯至拉丁文的中性复数	-0.075526565
-2.8981967	'，由西塞罗译自希腊文复数	-0.075526565
-2.8981967	，此一希腊语被亚里士多德拿来指“万物皆数”的概念。	-0.075526565
-2.6551394	西	-0.16131721
-2.6551394	方	-0.075526565
-2.28862	语	-0.10574728
-2.6664026	言	-0.075526565
-2.1487434	“	-0.18272905
-2.1487434	”	-0.12497944
-2.6551394	词	-0.13822924
-2.4962227	源	-0.12494353
-2.380133	自	-0.12494353
-2.2130744	于	-0.075526565
-2.4962227	希	-0.36979735
-2.8981967	腊	-0.075526565
-2.0927238	"	-0.13822927
-2.8981967	习	-0.075526565
-2.4962227	问	-0.15199152
-2.28862	以	-0.116306975
-2.8981967	另	-0.075526565
-2.8981967	外	-0.075526565
-2.6551394	还	-0.075526565
-2.8981967	较	-0.075526565
-2.8981967	狭	-0.075526565
-2.4962227	意	-0.13822924
-2.4962227	且	-0.075526565
-2.6664026	技	-0.21153757
-2.6664026	术	-0.075526565
-2.6551394	性	-0.075526565
-2.8981967	义	-0.075526565
-2.8981967	－	-0.075526565
-2.28862	研	-0.5458886
-2.8981967	究	-0.075526565
-2.6664026	即	-0.21153757
-2.380133	使	-0.075526565
-2.28862	形	-0.15199152
-2.6664026	容	-0.075526565
-2.6551394	关	-0.12494353
-2.8981967	功	-0.075526565
-2.4962227	亦	-0.075526565
-2.6551394	会	-0.075526565
-2.2130744	被	-0.075526565
-2.4962227	来	-0.116306975
-2.8981967	指	-0.075526565
-2.8981967	英	-0.075526565
-2.6664026	表	-0.21153757
-2.6664026	面	-0.075526565
-2.6664026	上	-0.075526565
-2.8981967	式	-0.075526565
-2.6551394	法	-0.075526565
-2.6664026	'	-0.21153757
-2.8981967	溯	-0.075526565
-2.8981967	拉	-0.075526565
-2.8981967	丁	-0.075526565
-2.8981967	由	-0.075526565
-2.8981967	塞	-0.075526565
-2.8981967	罗	-0.075526565
-2.8981967	译	-0.075526565
-2.380133	此	-0.12494353
-2.8981967	里	-0.075526565
-2.8981967	士	-0.075526565
-2.6551394	多	-0.075526565
-2.8981967	德	-0.075526565
-2.8981967	拿	-0.075526565
-2.6551394	万	-0.075526565
-2.6664026	物	-0.075526565
-2.8981967	皆	-0.075526565
-2.8981967	数学有着久远的历史。它被认为起源于人类早期的生产活动；中国古代的六艺之一就有“数”，数学一词在西方有希腊语词源（mathematikós）,	-0.075526565
-2.8981967	意思是“学问的基础”，源于（máthema）（“科学，知识，学问”）。	-0.075526565
-2.6664026	着	-0.075526565
-2.8981967	久	-0.075526565
-2.8981967	远	-0.075526565
-2.6551394	历	-0.24485862
-2.8981967	史	-0.075526565
-2.6664026	它	-0.075526565
-2.8981967	认	-0.075526565
-2.8981967	起	-0.075526565
-2.8981967	类	-0.075526565
-2.8981967	动	-0.075526565
-2.6664026	；	-0.075526565
-2.6664026	国	-0.075526565
-2.8981967	六	-0.075526565
-2.6551394	之	-0.075526565
-2.8981967	就	-0.075526565
-2.6551394	（	-0.16131721
-2.6664026	m	-0.16131721
-2.6664026	a	-0.075526565
-2.6664026	t	-0.16131721
-2.6664026	h	-0.075526565
-2.6664026	e	-0.075526565
-2.6551394	i	-0.16131721
-2.6664026	k	-0.075526565
-2.8981967	ó	-0.075526565
-2.8981967	s	-0.075526565
-2.6551394	）	-0.075526565
-2.8981967	,	-0.075526565
-2.8981967	思	-0.075526565
-2.8981967	á	-0.075526565
-2.8981967	从历史时代的一开始，数学内的主要原理是为了做税务和贸易等相关计算，为了了解数字间的关系，为了测量土地，以及为了预测天文事件而形成的。这些需要可以简单地被概括为数学对数量、结构、空间及时间方面的研究。	-0.075526565
-2.8981967	主	-0.075526565
-2.6664026	要	-0.075526565
-2.8981967	原	-0.075526565
-2.28862	理	-0.116306975
-2.8981967	做	-0.075526565
-2.8981967	税	-0.075526565
-2.8981967	务	-0.075526565
-2.6664026	贸	-0.21153757
-2.6664026	易	-0.075526565
-2.380133	等	-0.075526565
-2.8981967	计	-0.075526565
-2.6664026	算	-0.075526565
-2.6664026	解	-0.075526565
-2.6664026	字	-0.075526565
-2.4962227	间	-0.13822924
-2.8981967	系	-0.075526565
-2.6551394	测	-0.16131721
-2.2130744	量	-0.12497944
-2.6664026	土	-0.21153757
-2.8981967	预	-0.075526565
-2.6664026	天	-0.21153757
-2.6664026	事	-0.075526565
-2.8981967	件	-0.075526565
-2.6551394	成	-0.1807142
-2.6664026	这	-0.075526565
-2.6664026	些	-0.075526565
-2.8981967	需	-0.075526565
-2.8981967	简	-0.075526565
-2.8981967	单	-0.075526565
-2.8981967	括	-0.075526565
-2.6664026	对	-0.075526565
-2.8981967	结	-0.075526565
-2.8981967	构	-0.075526565
-2.8981967	空	-0.075526565
-2.8981967	到了16世纪，算术、初等代数、以及三角学等初等数学已大体完备。17世纪变量概念的产生使人们开始研究变化中的量与量的互相关系和图形间的互相变换。在研究经典力学的过程中，发明了微积分。随着自然科学和技术的进一步发展，为研究数学基础而产生的集合论和数理逻辑等也开始慢慢发展。	-0.075526565
-2.6551394	到	-0.075526565
-2.6551394	初	-0.16131721
-2.8981967	三	-0.075526565
-2.8981967	角	-0.075526565
-2.6664026	已	-0.075526565
-2.4962227	大	-0.13822924
-2.8981967	完	-0.075526565
-2.8981967	备	-0.075526565
-2.8981967	7	-0.075526565
-2.4962227	变	-0.13822924
-2.6664026	们	-0.075526565
-2.8981967	化	-0.075526565
-2.6664026	互	-0.075526565
-2.8981967	图	-0.075526565
-2.8981967	换	-0.075526565
-2.8981967	经	-0.075526565
-2.8981967	典	-0.075526565
-2.8981967	力	-0.075526565
-2.6664026	过	-0.075526565
-2.8981967	程	-0.075526565
-2.6551394	明	-0.075526565
-2.6664026	微	-0.21153757
-2.6664026	积	-0.21153757
-2.6551394	分	-0.075526565
-2.8981967	随	-0.075526565
-2.8981967	然	-0.075526565
-2.6664026	步	-0.075526565
-2.8981967	集	-0.075526565
-2.8981967	合	-0.075526565
-2.4962227	论	-0.075526565
-2.8981967	逻	-0.075526565
-2.8981967	辑	-0.075526565
-2.6664026	也	-0.075526565
-2.6664026	慢	-0.075526565
-2.8981967	数学从古至今便一直不断地延展，且与科学有丰富的相互作用，并使两者都得到好处。数学在历史上有著许多的发现，并且直至今日都还不断地发现中。依据Mikhail	-0.075526565
-2.8981967	B.	-0.075526565
-2.8981967	Sevryuk于美国数学会通报2006年1月的期刊中所说，“存在于数学评论资料库中论文和书籍的数量自1940年(数学评论的创刊年份)现已超过了一百九十万份，而且每年还增加超过七万五千份的细目。此一学海的绝大部份为新的数学定理及其证明。”	-0.075526565
-2.8981967	延	-0.075526565
-2.8981967	丰	-0.075526565
-2.8981967	富	-0.075526565
-2.8981967	并	-0.075526565
-2.8981967	两	-0.075526565
-2.6551394	者	-0.075526565
-2.6551394	都	-0.075526565
-2.6551394	得	-0.16131721
-2.8981967	好	-0.075526565
-2.8981967	处	-0.075526565
-2.6551394	著	-0.075526565
-2.6551394	许	-0.24485862
-2.8981967	依	-0.075526565
-2.8981967	据	-0.075526565
-2.8981967	M	-0.075526565
-2.8981967	l	-0.075526565
-2.8981967	B	-0.075526565
-2.8981967	.	-0.075526565
-2.8981967	S	-0.075526565
-2.8981967	v	-0.075526565
-2.8981967	r	-0.075526565
-2.8981967	y	-0.075526565
-2.8981967	u	-0.075526565
-2.6664026	通	-0.075526565
-2.8981967	报	-0.075526565
-2.8981967	2	-0.075526565
-2.6551394	0	-0.075526565
-2.4962227	年	-0.075526565
-2.8981967	月	-0.075526565
-2.6664026	刊	-0.075526565
-2.6551394	所	-0.075526565
-2.8981967	说	-0.075526565
-2.6551394	存	-0.24485862
-2.8981967	评	-0.075526565
-2.8981967	资	-0.075526565
-2.8981967	料	-0.075526565
-2.8981967	库	-0.075526565
-2.6551394	书	-0.16131721
-2.8981967	籍	-0.075526565
-2.8981967	9	-0.075526565
-2.8981967	4	-0.075526565
-2.8981967	(	-0.075526565
-2.8981967	创	-0.075526565
-2.4962227	份	-0.075526565
-2.8981967	)	-0.075526565
-2.6664026	超	-0.21153757
-2.8981967	百	-0.075526565
-2.8981967	九	-0.075526565
-2.6664026	十	-0.075526565
-2.8981967	每	-0.075526565
-2.8981967	增	-0.075526565
-2.8981967	七	-0.075526565
-2.8981967	五	-0.075526565
-2.8981967	千	-0.075526565
-2.8981967	细	-0.075526565
-2.8981967	目	-0.075526565
-2.8981967	海	-0.075526565
-2.8981967	绝	-0.075526565
-2.8981967	部	-0.075526565
-2.8981967	定	-0.075526565
-2.8981967	证	-0.075526565
-2.8981967	数学出现于包含著数量、结构、空间及变化等困难问题内。一开始，出现于贸易、土地测量及之后的天文学；今日，所有的科学都存在著值得数学家研究的问题，且数学本身亦存在了许多的问题。牛顿和莱布尼兹是微积分的发明者，费曼发明了费曼路径积分，来用于推理及物理的洞察，而今日的弦理论亦生成为新的数学。一些数学只和生成它的领域有关，且用来解答此领域的更多问题。但一般被一领域生成的数学在其他许多领域内也十分有用，且成为数学概念的一般知识。即使是“最纯的”数学通常亦有实际的用途，此一卓越的事实，被维格纳称为“数学在自然科学中不可想像的有效性”。	-0.075526565
-2.4962227	出	-0.21153757
-2.6664026	包	-0.21153757
-2.8981967	含	-0.075526565
-2.8981967	困	-0.075526565
-2.6664026	难	-0.075526565
-2.8981967	题	-0.075526565
-2.6664026	后	-0.075526565
-2.8981967	值	-0.075526565
-2.6664026	家	-0.075526565
-2.8981967	身	-0.075526565
-2.8981967	牛	-0.075526565
-2.8981967	顿	-0.075526565
-2.8981967	莱	-0.075526565
-2.8981967	布	-0.075526565
-2.8981967	尼	-0.075526565
-2.8981967	兹	-0.075526565
-2.6664026	费	-0.21153757
-2.8981967	曼	-0.075526565
-2.8981967	路	-0.075526565
-2.8981967	径	-0.075526565
-2.8981967	推	-0.075526565
-2.8981967	洞	-0.075526565
-2.8981967	察	-0.075526565
-2.8981967	弦	-0.075526565
-2.8981967	只	-0.075526565
-2.4962227	领	-0.36979735
-2.8981967	域	-0.075526565
-2.8981967	答	-0.075526565
-2.6664026	更	-0.075526565
-2.6664026	但	-0.075526565
-2.8981967	般	-0.075526565
-2.8981967	他	-0.075526565
-2.8981967	最	-0.075526565
-2.8981967	纯	-0.075526565
-2.6664026	常	-0.075526565
-2.6664026	实	-0.075526565
-2.8981967	际	-0.075526565
-2.8981967	途	-0.075526565
-2.8981967	卓	-0.075526565
-2.8981967	越	-0.075526565
-2.8981967	维	-0.075526565
-2.8981967	格	-0.075526565
-2.8981967	纳	-0.075526565
-2.8981967	称	-0.075526565
-2.8981967	想	-0.075526565
-2.8981967	像	-0.075526565
-2.8981967	效	-0.075526565
-2.8981967	我们现今所使用的大部分数学符号在16世纪后才被发明出来的。在此之前，数学以文字的形式书写出来，这种形式会限制了数学的发展。现今的符号使得数学对于专家而言更容易去控作，但初学者却常对此感到怯步。它被极度的压缩：少量的符号包含著大量的讯息。如同音乐符号一般，现今的数学符号有明确的语法和难以以其他方法书写的讯息编码。	-0.075526565
-2.8981967	我	-0.075526565
-2.6551394	符	-0.24485862
-2.8981967	号	-0.075526565
-2.8981967	才	-0.075526565
-2.8981967	前	-0.075526565
-2.8981967	写	-0.075526565
-2.8981967	种	-0.075526565
-2.8981967	限	-0.075526565
-2.8981967	制	-0.075526565
-2.8981967	专	-0.075526565
-2.8981967	去	-0.075526565
-2.8981967	控	-0.075526565
-2.8981967	却	-0.075526565
-2.8981967	感	-0.075526565
-2.8981967	怯	-0.075526565
-2.8981967	极	-0.075526565
-2.8981967	压	-0.075526565
-2.8981967	缩	-0.075526565
-2.8981967	：	-0.075526565
-2.8981967	少	-0.075526565
-2.8981967	讯	-0.075526565
-2.8981967	息	-0.075526565
-2.8981967	如	-0.075526565
-2.8981967	同	-0.075526565
-2.8981967	音	-0.075526565
-2.8981967	乐	-0.075526565
-2.8981967	确	-0.075526565
-2.8981967	编	-0.075526565
-2.8981967	码	-0.075526565

\2-grams:
-0.29083925	<s> </s>	0
-0.77032214	数学 </s>	0
-1.8800399	学 </s>	0
-0.77032214	基础数学的知识与运用总是个人与团体生活中不可或缺的一块。其基本概念的精炼早在古埃及、美索不达米亚及古印度内的古代数学文本内便可观见。从那时开始，其发展便持续不断地有小幅的进展，直至16世纪的文艺复兴时期，因为和新的科学发现相作用而产生的数学革新导致了知识的加速发展，直至今日。 </s>	0
-0.7213277	。 </s>	0
-0.77032214	，此一希腊语被亚里士多德拿来指“万物皆数”的概念。 </s>	0
-1.5730681	” </s>	0
-0.77032214	意思是“学问的基础”，源于（máthema）（“科学，知识，学问”）。 </s>	0
-0.77032214	从历史时代的一开始，数学内的主要原理是为了做税务和贸易等相关计算，为了了解数字间的关系，为了测量土地，以及为了预测天文事件而形成的。这些需要可以简单地被概括为数学对数量、结构、空间及时间方面的研究。 </s>	0
-0.77032214	到了16世纪，算术、初等代数、以及三角学等初等数学已大体完备。17世纪变量概念的产生使人们开始研究变化中的量与量的互相关系和图形间的互相变换。在研究经典力学的过程中，发明了微积分。随着自然科学和技术的进一步发展，为研究数学基础而产生的集合论和数理逻辑等也开始慢慢发展。 </s>	0
-0.77032214	Sevryuk于美国数学会通报2006年1月的期刊中所说，“存在于数学评论资料库中论文和书籍的数量自1940年(数学评论的创刊年份)现已超过了一百九十万份，而且每年还增加超过七万五千份的细目。此一学海的绝大部份为新的数学定理及其证明。” </s>	0
-0.77032214	数学出现于包含著数量、结构、空间及变化等困难问题内。一开始，出现于贸易、土地测量及之后的天文学；今日，所有的科学都存在著值得数学家研究的问题，且数学本身亦存在了许多的问题。牛顿和莱布尼兹是微积分的发明者，费曼发明了费曼路径积分，来用于推理及物理的洞察，而今日的弦理论亦生成为新的数学。一些数学只和生成它的领域有关，且用来解答此领域的更多问题。但一般被一领域生成的数学在其他许多领域内也十分有用，且成为数学概念的一般知识。即使是“最纯的”数学通常亦有实际的用途，此一卓越的事实，被维格纳称为“数学在自然科学中不可想像的有效性”。 </s>	0
-0.77032214	我们现今所使用的大部分数学符号在16世纪后才被发明出来的。在此之前，数学以文字的形式书写出来，这种形式会限制了数学的发展。现今的符号使得数学对于专家而言更容易去控作，但初学者却常对此感到怯步。它被极度的压缩：少量的符号包含著大量的讯息。如同音乐符号一般，现今的数学符号有明确的语法和难以以其他方法书写的讯息编码。 </s>	0
-2.349659	<s> 数学	-0.036906492
-1.1759154	<s> 数	-0.18167712
-1.1309946	础 数	-0.036906492
-1.1789035	的 数	-0.2277861
-1.6808064	。 数	-0.036906492
-0.6820093	代 数	-0.036906492
-1.3162535	， 数	-0.05673836
-0.32683223	复 数	-0.08397416
-1.0889378	为 数	-0.13676994
-1.4351475	和 数	-0.036906492
-1.4678147	了 数	-0.036906492
-0.5670646	“ 数	-0.051694844
-1.4406229	” 数	-0.036906492
-1.4146594	于 数	-0.036906492
-1.5049378	" 数	-0.036906492
-1.360944	且 数	-0.036906492
-1.3246124	究 数	-0.036906492
-0.74381715	皆 数	-0.036906492
-0.99755096	国 数	-0.036906492
-1.3246124	等 数	-0.036906492
-0.99755096	解 数	-0.036906492
-0.99755096	些 数	-0.036906492
-1.1309946	对 数	-0.036906492
-1.2783692	分 数	-0.036906492
-0.5621079	得 数	-0.13676994
-1.2171018	著 数	-0.036906492
-0.74381715	( 数	-0.036906492
-0.22677872	数 学	-0.057114813
-1.7745106	一 学	-0.036906492
-1.5469244	文 学	-0.036906492
-1.9622608	， 学	-0.036906492
-1.6127254	和 学	-0.036906492
-0.1791404	科 学	-0.036906492
-1.6139839	“ 学	-0.036906492
-1.1453197	" 学	-0.036906492
-1.2209238	初 学	-0.036906492
-0.7745473	角 学	-0.036906492
-0.7745473	力 学	-0.036906492
-2.349659	<s> 基础数学的知识与运用总是个人与团体生活中不可或缺的一块。其基本概念的精炼早在古埃及、美索不达米亚及古印度内的古代数学文本内便可观见。从那时开始，其发展便持续不断地有小幅的进展，直至16世纪的文艺复兴时期，因为和新的科学发现相作用而产生的数学革新导致了知识的加速发展，直至今日。	-0.036906492
-2.2839017	<s> 基	-0.036906492
-2.2053761	学 基	-0.036906492
-2.33272	的 基	-0.036906492
-1.6934338	其 基	-0.036906492
-0.4894195	基 础	-0.03690652
-1.2402008	学 的	-0.036906492
-1.0860912	识 的	-0.036906492
-1.2712805	用 的	-0.036906492
-1.2285002	生 的	-0.036906492
-0.98884624	中 的	-0.036906492
-0.6952161	缺 的	-0.036906492
-0.9139107	念 的	-0.03690652
-0.9139107	度 的	-0.036906492
-0.78756946	内 的	-0.036906492
-0.6505653	代 的	-0.036906492
-1.207154	文 的	-0.036906492
-1.2903594	有 的	-0.036906492
-0.6952161	幅 的	-0.036906492
-1.0860912	纪 的	-0.036906492
-1.0208162	期 的	-0.036906492
-0.53518385	新 的	-0.10086953
-1.208187	今 的	-0.036906492
-1.0860912	日 的	-0.036906492
-1.227428	语 的	-0.036906492
-1.2571527	” 的	-0.036906492
-1.208187	问 的	-0.036906492
-1.0208162	术 的	-0.036906492
-1.0208162	性 的	-0.036906492
-1.1629429	究 的	-0.036906492
-1.1579683	关 的	-0.036906492
-0.6952161	功 的	-0.036906492
-1.1874774	来 的	-0.036906492
-1.0208162	面 的	-0.036906492
-0.9139107	上 的	-0.036906492
-1.0860912	多 的	-0.036906492
-0.6952161	远 的	-0.036906492
-0.9139107	它 的	-0.036906492
-1.1874774	理 的	-0.036906492
-0.9139107	字 的	-0.036906492
-0.63970506	间 的	-0.036906492
-0.7417616	量 的	-0.03690652
-0.7274922	成 的	-0.036906492
-1.1305529	分 的	-0.036906492
-1.1305529	论 的	-0.036906492
-0.6952161	富 的	-0.036906492
-0.6952161	月 的	-0.036906492
-0.6952161	籍 的	-0.036906492
-1.0860912	份 的	-0.036906492
-0.6952161	海 的	-0.036906492
-0.9139107	后 的	-0.036906492
-1.0860912	域 的	-0.036906492
-0.6952161	纯 的	-0.036906492
-0.6952161	际 的	-0.036906492
-0.6952161	越 的	-0.036906492
-0.6952161	像 的	-0.036906492
-0.9139107	写 的	-0.036906492
-0.6952161	确 的	-0.036906492
-2.33272	的 知	-0.036906492
-2.2175	， 知	-0.036906492
-1.7963486	了 知	-0.036906492
-1.2526748	般 知	-0.036906492
-0.24126904	知 识	-0.036906492
-1.3707248	识 与	-0.036906492
-1.2526748	人 与	-0.036906492
-1.593729	且 与	-0.036906492
-1.696194	量 与	-0.036906492
-1.3875502	与 运	-0.036906492
-2.0876005	的 用	-0.036906492
-0.778814	运 用	-0.036906492
-1.7648153	有 用	-0.036906492
-0.58066	作 用	-0.036906492
-1.7172066	" 用	-0.036906492
-1.5288315	且 用	-0.036906492
-1.4763551	使 用	-0.036906492
-1.5728196	被 用	-0.036906492
-1.4843408	来 用	-0.036906492
-1.7718422	用 总	-0.036906492
-0.7874752	总 是	-0.036906492
-1.5213431	使 是	-0.036906492
-0.7874752	思 是	-0.036906492
-1.5258949	理 是	-0.036906492
-0.7874752	兹 是	-0.036906492
-1.4744153	是 个	-0.036906492
-1.9069878	有 个	-0.036906492
-1.0879298	个 人	-0.036906492
-1.7078485	于 人	-0.036906492
-1.5457147	使 人	-0.036906492
-1.3875502	与 团	-0.036906492
-0.7919995	团 体	-0.036906492
-1.3822222	大 体	-0.036906492
-2.2176545	的 生	-0.036906492
-1.0750188	体 生	-0.036906492
-1.692801	和 生	-0.036906492
-0.5840177	产 生	-0.10086953
-1.3542852	亦 生	-0.036906492
-1.3542852	域 生	-0.036906492
-1.6132437	生 活	-0.036906492
-1.2620522	产 活	-0.036906492
-1.9341574	学 中	-0.036906492
-2.0184796	的 中	-0.036906492
-1.0543183	活 中	-0.036906492
-1.5628314	现 中	-0.036906492
-0.9818807	语 中	-0.036906492
-1.0543183	言 中	-0.036906492
-1.0543183	； 中	-0.036906492
-1.0543183	化 中	-0.036906492
-0.7745473	程 中	-0.036906492
-1.0543183	刊 中	-0.036906492
-0.7745473	库 中	-0.036906492
-1.1710031	中 不	-0.13676994
-0.7874752	索 不	-0.036906492
-0.7874752	续 不	-0.036906492
-1.2511723	直 不	-0.036906492
-1.2463379	还 不	-0.036906492
-1.4674206	不 可	-0.036906492
-1.2526748	便 可	-0.036906492
-2.2175	， 可	-0.036906492
-1.0835834	要 可	-0.036906492
-1.4718997	可 或	-0.036906492
-1.8276857	" 或	-0.036906492
-1.092188	或 缺	-0.036906492
-1.9062562	学 一	-0.036906492
-1.5693758	的 一	-0.03690652
-1.4757916	。 一	-0.036906492
-1.2043931	便 一	-0.036906492
-1.050294	进 一	-0.036906492
-1.6467649	了 一	-0.036906492
-1.5851469	” 一	-0.036906492
-1.5345336	被 一	-0.036906492
-0.78917044	此 一	-0.03690652
-1.2043931	之 一	-0.036906492
-1.050294	但 一	-0.036906492
-1.3853406	号 一	-0.036906492
-1.9861394	一 块	-0.036906492
-1.6488372	学 。	-0.036906492
-1.5459597	的 。	-0.036906492
-1.2230234	识 。	-0.036906492
-1.5024147	中 。	-0.036906492
-0.74579954	块 。	-0.036906492
-1.001113	念 。	-0.036906492
-0.8389705	内 。	-0.036906492
-0.74579954	见 。	-0.036906492
-1.3188004	展 。	-0.036906492
-1.2230234	日 。	-0.036906492
-1.449494	” 。	-0.036906492
-1.5149286	" 。	-0.036906492
-1.332212	究 。	-0.036906492
-1.1358453	史 。	-0.036906492
-1.1358453	） 。	-0.036906492
-0.74579954	备 。	-0.036906492
-0.74579954	换 。	-0.036906492
-1.285195	明 。	-0.036906492
-1.285195	分 。	-0.036906492
-1.001113	步 。	-0.036906492
-0.74579954	处 。	-0.036906492
-0.74579954	目 。	-0.036906492
-1.1358453	题 。	-0.036906492
-1.001113	息 。	-0.036906492
-0.74579954	码 。	-0.036906492
-1.32631	。 其	-0.03690652
-1.2332072	在 其	-0.036906492
-1.7444018	及 其	-0.036906492
-1.6713464	， 其	-0.036906492
-1.5258949	以 其	-0.036906492
-2.2628238	学 本	-0.036906492
-1.3838911	基 本	-0.036906492
-1.6612989	文 本	-0.036906492
-2.1546474	学 概	-0.036906492
-2.2713876	的 概	-0.036906492
-1.2463379	本 概	-0.036906492
-1.62976	被 概	-0.036906492
-1.6806583	量 概	-0.036906492
-0.3379781	概 念	-0.051694844
-2.486889	的 精	-0.036906492
-0.7940199	精 炼	-0.036906492
-0.7919995	炼 早	-0.036906492
-0.7919995	类 早	-0.036906492
-1.9959913	学 在	-0.03690652
-1.5001377	。 在	-0.036906492
-1.6176485	其 在	-0.036906492
-1.0624804	早 在	-0.036906492
-1.6716319	及 在	-0.036906492
-1.3393087	词 在	-0.036906492
-1.4763551	使 在	-0.036906492
-0.36095375	存 在	-0.03690652
-1.4121431	号 在	-0.036906492
-2.2176545	的 古	-0.036906492
-1.8080087	在 古	-0.036906492
-1.7250347	及 古	-0.036906492
-1.2400919	从 古	-0.036906492
-1.6564	于 古	-0.036906492
-1.0750188	国 古	-0.036906492
-1.559544	古 埃	-0.036906492
-0.783123	埃 及	-0.036906492
-1.070799	亚 及	-0.036906492
-2.0894895	， 及	-0.036906492
-0.87545645	以 及	-0.03690652
-0.87545645	理 及	-0.036906492
-1.3530129	间 及	-0.036906492
-1.6511608	量 及	-0.036906492
-2.1510718	数 、	-0.036906492
-1.7064946	及 、	-0.036906492
-1.1629329	" 、	-0.13676994
-1.2339346	术 、	-0.036906492
-1.2339346	易 、	-0.036906492
-1.6511608	量 、	-0.13676994
-0.783123	构 、	-0.13676994
-1.608798	、 美	-0.036906492
-1.7089047	于 美	-0.036906492
-1.092188	美 索	-0.036906492
-1.4843719	不 达	-0.036906492
-0.7940199	达 米	-0.036906492
-0.7919995	米 亚	-0.036906492
-1.6622475	被 亚	-0.036906492
-1.559544	古 印	-0.036906492
-0.7919995	印 度	-0.036906492
-0.7919995	极 度	-0.036906492
-2.109229	学 内	-0.036906492
-1.2400919	本 内	-0.036906492
-1.0750188	度 内	-0.036906492
-1.4463167	源 内	-0.036906492
-1.2400919	题 内	-0.036906492
-1.3542852	域 内	-0.036906492
-0.8853202	古 代	-0.036906492
-1.379184	时 代	-0.036906492
-1.5457147	等 代	-0.036906492
-2.0681143	学 文	-0.036906492
-2.1698437	的 文	-0.036906492
-1.070799	腊 文	-0.036906492
-1.504621	以 文	-0.036906492
-0.783123	丁 文	-0.036906492
-0.40966445	天 文	-0.036906492
-1.430977	论 文	-0.036906492
-1.5508299	内 便	-0.036906492
-1.4759424	展 便	-0.036906492
-1.5503188	今 便	-0.036906492
-1.4816539	可 观	-0.036906492
-0.7940199	观 见	-0.036906492
-2.3160365	<s> 从	-0.036906492
-2.2628238	学 从	-0.036906492
-2.1624465	。 从	-0.036906492
-1.2654362	从 那	-0.036906492
-1.764673	及 时	-0.036906492
-0.7896678	那 时	-0.036906492
-0.7896678	兴 时	-0.036906492
-1.2526748	史 时	-0.036906492
-1.3212885	一 开	-0.13676994
-1.3707248	时 开	-0.036906492
-1.0835834	们 开	-0.036906492
-1.0835834	也 开	-0.036906492
-0.24126904	开 始	-0.048696652
-1.8238351	数 ，	-0.036906492
-1.5432624	学 ，	-0.036906492
-1.6004255	的 ，	-0.036906492
-1.177768	识 ，	-0.036906492
-0.9966688	用 ，	-0.036906492
-1.4267769	中 ，	-0.036906492
-1.0984774	始 ，	-0.03690652
-0.5529252	展 ，	-0.08397416
-1.2748421	地 ，	-0.036906492
-1.177768	纪 ，	-0.036906492
-1.0984774	期 ，	-0.036906492
-1.364037	现 ，	-0.036906492
-1.125165	作 ，	-0.036906492
-1.177768	日 ，	-0.036906492
-0.7764907	” ，	-0.03690652
-1.2017181	词 ，	-0.036906492
-1.0594609	" ，	-0.036906492
-1.2550967	关 ，	-0.036906492
-1.2947153	来 ，	-0.036906492
-1.177768	式 ，	-0.036906492
-0.3925863	' ，	-0.036906492
-0.97340184	算 ，	-0.036906492
-0.97340184	系 ，	-0.036906492
-1.2333748	分 ，	-0.036906492
-1.0984774	者 ，	-0.036906492
-0.73018813	说 ，	-0.036906492
-1.177768	份 ，	-0.036906492
-1.0984774	题 ，	-0.036906492
-0.73018813	察 ，	-0.036906492
-1.0984774	般 ，	-0.036906492
-0.97340184	实 ，	-0.036906492
-0.73018813	途 ，	-0.036906492
-0.73018813	前 ，	-0.036906492
-1.9639748	学 发	-0.036906492
-1.5927113	的 发	-0.03690652
-1.6039582	其 发	-0.036906492
-1.9907466	， 发	-0.036906492
-1.4658004	地 发	-0.036906492
-0.7766754	速 发	-0.036906492
-1.5596789	被 发	-0.036906492
-1.0583802	步 发	-0.036906492
-1.0583802	慢 发	-0.036906492
-1.0583802	曼 发	-0.036906492
-0.56011283	发 展	-0.11487563
-1.0879298	进 展	-0.036906492
-0.7918715	延 展	-0.036906492
-1.2654362	便 持	-0.036906492
-0.7940199	持 续	-0.036906492
-0.58597374	不 断	-0.05673836
-0.7918715	断 地	-0.03690652
-0.41235253	土 地	-0.036906492
-0.7918715	单 地	-0.036906492
-1.5501289	学 有	-0.036906492
-1.9318686	的 有	-0.036906492
-1.5531437	其 有	-0.036906492
-1.4259734	地 有	-0.036906492
-1.2941223	方 有	-0.036906492
-1.0423558	习 有	-0.036906492
-1.1931171	还 有	-0.036906492
-1.2941223	亦 有	-0.036906492
-1.0423558	上 有	-0.036906492
-0.76822484	就 有	-0.036906492
-1.3683492	分 有	-0.036906492
-1.1931171	所 有	-0.036906492
-1.2941223	域 有	-0.036906492
-1.3683492	号 有	-0.036906492
-1.9330813	有 小	-0.036906492
-0.7940199	小 幅	-0.036906492
-1.9117756	的 进	-0.036906492
-1.9576079	一 直	-0.036906492
-2.2701967	， 直	-0.13676994
-1.607959	且 直	-0.036906492
-1.5482647	古 至	-0.036906492
-0.5874016	直 至	-0.10086953
-0.7918715	溯 至	-0.036906492
-2.060369	。 1	-0.036906492
-1.8080087	在 1	-0.036906492
-1.3600307	至 1	-0.036906492
-1.7538533	了 1	-0.036906492
-1.4463167	自 1	-0.036906492
-1.3542852	年 1	-0.036906492
-0.66354007	1 6	-0.05673836
-1.2594813	0 6	-0.036906492
-1.088183	6 世	-0.05673836
-0.7919995	7 世	-0.036906492
-0.41300693	世 纪	-0.036906492
-1.6622475	文 艺	-0.036906492
-0.7919995	六 艺	-0.036906492
-2.2713876	的 复	-0.036906492
-1.62976	文 复	-0.036906492
-1.0792799	艺 复	-0.036906492
-1.2463379	性 复	-0.036906492
-1.2463379	面 复	-0.036906492
-1.487196	复 兴	-0.036906492
-2.4041612	的 期	-0.036906492
-1.0879298	早 期	-0.036906492
-1.379184	时 期	-0.036906492
-2.3282585	， 因	-0.036906492
-1.4121089	是 为	-0.036906492
-1.6551969	及 为	-0.036906492
-1.4294832	， 为	-0.10086953
-0.7766754	因 为	-0.036906492
-1.0583802	义 为	-0.036906492
-0.7766754	认 为	-0.036906492
-0.79532015	成 为	-0.036906492
-0.7766754	括 为	-0.036906492
-1.3231628	份 为	-0.036906492
-0.7766754	称 为	-0.036906492
-1.9639748	学 和	-0.036906492
-1.5596789	文 和	-0.036906492
-1.7074034	为 和	-0.036906492
-1.7013958	" 和	-0.036906492
-1.2159698	法 和	-0.036906492
-0.7766754	务 和	-0.036906492
-1.0583802	系 和	-0.036906492
-1.403024	论 和	-0.036906492
-0.7766754	顿 和	-0.036906492
-0.7766754	只 和	-0.036906492
-1.181731	为 新	-0.13676994
-1.7490515	和 新	-0.036906492
-0.7918715	革 新	-0.036906492
-1.8432547	的 科	-0.13676994
-1.3624272	与 科	-0.036906492
-1.6888359	“ 科	-0.036906492
-1.7869235	" 科	-0.036906492
-0.7874752	然 科	-0.13676994
-2.060369	。 现	-0.036906492
-2.1281135	， 现	-0.036906492
-0.95885926	发 现	-0.03690652
-1.0750188	们 现	-0.036906492
-0.7852937	) 现	-0.036906492
-0.70784765	出 现	-0.13676994
-2.33272	的 相	-0.036906492
-1.6515162	现 相	-0.036906492
-1.533358	等 相	-0.036906492
-1.0835834	互 相	-0.036906492
-1.4738656	相 作	-0.036906492
-1.0879298	互 作	-0.036906492
-0.7918715	控 作	-0.036906492
-1.2463379	础 而	-0.036906492
-1.7192402	用 而	-0.036906492
-1.6713464	， 而	-0.036906492
-0.7874752	件 而	-0.036906492
-1.0792799	家 而	-0.036906492
-2.4041612	的 产	-0.036906492
-1.6125132	生 产	-0.036906492
-0.8853202	而 产	-0.13676994
-2.3269074	学 革	-0.036906492
-1.2669628	新 导	-0.036906492
-0.7940199	导 致	-0.036906492
-1.7660096	在 了	-0.036906492
-0.9481119	为 了	-0.036906492
-0.7809632	致 了	-0.036906492
-1.7151482	了 了	-0.036906492
-1.2278634	到 了	-0.036906492
-1.2278634	过 了	-0.036906492
-1.421458	明 了	-0.036906492
-0.7809632	制 了	-0.036906492
-2.408684	的 加	-0.036906492
-0.7919995	增 加	-0.036906492
-1.092188	加 速	-0.036906492
-0.7097152	至 今	-0.10086953
-0.785244	现 今	-0.10086953
-1.5369358	而 今	-0.036906492
-1.0835834	； 今	-0.036906492
-0.6647994	今 日	-0.036906492
-2.349659	<s> 西方语言中“数学”一词源自于古希腊语的，其有"学习"、"学问"、"科学"，以及另外还有个较狭意且技术性的意义－“数学研究”，即使在其语源内。其形容词	-0.036906492
-0.7940199	西方语言中“数学”一词源自于古希腊语的，其有"学习"、"学问"、"科学"，以及另外还有个较狭意且技术性的意义－“数学研究”，即使在其语源内。其形容词 ，意义为"和学习有关的"或"用功的"，亦会被用来指"数学的"。其在英语中表面上的复数形式，及在法语中的表面复数形式	-0.036906492
-0.7940199	，意义为"和学习有关的"或"用功的"，亦会被用来指"数学的"。其在英语中表面上的复数形式，及在法语中的表面复数形式 '，可溯至拉丁文的中性复数	-0.036906492
-0.7940199	'，可溯至拉丁文的中性复数 '，由西塞罗译自希腊文复数	-0.036906492
-0.7940199	'，由西塞罗译自希腊文复数 ，此一希腊语被亚里士多德拿来指“万物皆数”的概念。	-0.036906492
-2.3160365	<s> 西	-0.036906492
-1.8797697	在 西	-0.036906492
-0.7918715	由 西	-0.036906492
-0.5874016	西 方	-0.036906492
-1.381791	间 方	-0.036906492
-1.0879298	他 方	-0.036906492
-2.2176545	的 语	-0.036906492
-1.6615161	其 语	-0.036906492
-1.3542852	方 语	-0.036906492
-1.0750188	腊 语	-0.03690652
-0.7852937	英 语	-0.036906492
-1.2400919	法 语	-0.036906492
-1.5489303	而 言	-0.036906492
-1.6646844	语 言	-0.036906492
-0.7970799	是 “	-0.036906492
-1.7273717	中 “	-0.036906492
-2.0540214	， “	-0.036906492
-1.7853055	有 “	-0.036906492
-1.7386827	为 “	-0.036906492
-0.7809632	－ “	-0.036906492
-1.0666199	指 “	-0.036906492
-1.2357848	（ “	-0.036906492
-1.5671167	数 ”	-0.036906492
-2.0305574	学 ”	-0.036906492
-1.2278634	础 ”	-0.036906492
-2.1267781	的 ”	-0.036906492
-2.0036006	。 ”	-0.036906492
-1.5002103	问 ”	-0.036906492
-1.2278634	性 ”	-0.036906492
-1.4871728	究 ”	-0.036906492
-1.3279159	一 词	-0.036906492
-1.6637944	语 词	-0.036906492
-1.0879298	容 词	-0.036906492
-2.2175	， 源	-0.036906492
-1.6487147	语 源	-0.036906492
-0.7097152	词 源	-0.036906492
-0.7896678	起 源	-0.036906492
-1.8306366	在 自	-0.036906492
-1.4553069	源 自	-0.036906492
-0.7874752	译 自	-0.036906492
-1.0792799	着 自	-0.036906492
-1.6806583	量 自	-0.036906492
-1.6870987	用 于	-0.036906492
-1.7865016	在 于	-0.036906492
-1.611273	现 于	-0.036906492
-0.79907995	源 于	-0.036906492
-1.4375088	自 于	-0.036906492
-1.2339346	k 于	-0.036906492
-1.2339346	对 于	-0.036906492
-1.9300344	一 希	-0.036906492
-1.5369358	古 希	-0.036906492
-1.8785636	有 希	-0.036906492
-1.4644871	自 希	-0.036906492
-0.24126904	希 腊	-0.051694844
-1.9959913	学 "	-0.036906492
-1.6048669	的 "	-0.03690652
-1.0624804	或 "	-0.036906492
-1.5288315	、 "	-0.036906492
-1.7648153	有 "	-0.036906492
-1.7227615	为 "	-0.036906492
-1.0624804	习 "	-0.036906492
-1.4908469	问 "	-0.036906492
-1.0624804	指 "	-0.036906492
-1.7227868	学 习	-0.036906492
-1.4869576	学 问	-0.03690652
-1.8651397	的 问	-0.13676994
-1.3707248	多 问	-0.036906492
-1.0835834	难 问	-0.036906492
-2.109229	学 以	-0.036906492
-1.4407092	可 以	-0.036906492
-1.5665957	、 以	-0.036906492
-1.6574601	， 以	-0.13676994
-1.5151278	以 以	-0.036906492
-1.0750188	难 以	-0.036906492
-1.8076087	及 另	-0.036906492
-0.7940199	另 外	-0.036906492
-0.7918715	外 还	-0.036906492
-1.2591057	都 还	-0.036906492
-1.379184	年 还	-0.036906492
-1.092188	个 较	-0.036906492
-0.7940199	较 狭	-0.036906492
-2.33272	的 意	-0.036906492
-2.2175	， 意	-0.036906492
-0.7896678	狭 意	-0.036906492
-0.7896678	, 意	-0.036906492
-1.2452519	， 且	-0.036906492
-1.5369358	而 且	-0.036906492
-1.3744158	意 且	-0.036906492
-1.0835834	并 且	-0.036906492
-1.7502129	和 技	-0.036906492
-1.608798	且 技	-0.036906492
-0.41239157	技 术	-0.036906492
-1.088183	算 术	-0.036906492
-1.8240643	中 性	-0.036906492
-1.2591057	术 性	-0.036906492
-0.7918715	效 性	-0.036906492
-0.7128444	意 义	-0.036906492
-1.092188	义 －	-0.036906492
-2.109229	学 研	-0.036906492
-2.2176545	的 研	-0.036906492
-1.8080087	在 研	-0.036906492
-1.2400919	始 研	-0.036906492
-1.7723911	为 研	-0.036906492
-1.0750188	家 研	-0.036906492
-0.14518365	研 究	-0.03690652
-2.1646748	。 即	-0.036906492
-2.2734554	， 即	-0.036906492
-1.5880259	生 使	-0.036906492
-0.4110064	即 使	-0.036906492
-1.0792799	并 使	-0.036906492
-1.2463379	所 使	-0.036906492
-1.4506646	号 使	-0.036906492
-2.1702716	数 形	-0.13676994
-2.2176545	的 形	-0.036906492
-1.6615161	其 形	-0.036906492
-1.5151278	而 形	-0.036906492
-0.7852937	图 形	-0.036906492
-0.7852937	种 形	-0.036906492
-1.5509348	形 容	-0.036906492
-1.088183	更 容	-0.036906492
-2.4041612	的 关	-0.036906492
-1.2740574	有 关	-0.036906492
-0.8071736	相 关	-0.036906492
-1.7718422	用 功	-0.036906492
-2.2175	， 亦	-0.036906492
-1.4608537	论 亦	-0.036906492
-0.7896678	身 亦	-0.036906492
-1.0835834	常 亦	-0.036906492
-2.2628238	学 会	-0.036906492
-1.379184	亦 会	-0.036906492
-1.379184	式 会	-0.036906492
-2.0894895	， 被	-0.036906492
-1.4982668	地 被	-0.036906492
-1.6063836	语 被	-0.036906492
-1.2339346	会 被	-0.036906492
-1.070799	它 被	-0.036906492
-1.2339346	般 被	-0.036906492
-0.783123	才 被	-0.036906492
-1.0995826	用 来	-0.036906492
-2.2175	， 来	-0.036906492
-0.7896678	拿 来	-0.036906492
-0.7105181	出 来	-0.036906492
-0.88774633	来 指	-0.036906492
-1.9057628	在 英	-0.036906492
-2.408684	的 表	-0.036906492
-1.8253211	中 表	-0.036906492
-1.3796793	方 面	-0.036906492
-0.41239157	表 面	-0.036906492
-1.2594813	面 上	-0.036906492
-1.2594813	史 上	-0.036906492
-0.6647994	形 式	-0.036906492
-1.8797697	在 法	-0.036906492
-1.379184	方 法	-0.036906492
-1.6637944	语 法	-0.036906492
-2.2348762	数 '	-0.036906492
-1.3796793	式 '	-0.036906492
-1.4816539	可 溯	-0.036906492
-1.3890669	至 拉	-0.036906492
-0.7940199	拉 丁	-0.036906492
-2.3282585	， 由	-0.036906492
-1.2669628	西 塞	-0.036906492
-0.7940199	塞 罗	-0.036906492
-0.7940199	罗 译	-0.036906492
-2.0918024	。 此	-0.036906492
-1.8306366	在 此	-0.036906492
-1.6713464	， 此	-0.13676994
-1.2463379	对 此	-0.036906492
-0.7874752	答 此	-0.036906492
-1.092188	亚 里	-0.036906492
-0.7940199	里 士	-0.036906492
-0.7918715	士 多	-0.036906492
-0.36429435	许 多	-0.10086953
-1.0879298	更 多	-0.036906492
-1.3875502	多 德	-0.036906492
-0.7940199	德 拿	-0.036906492
-1.7169569	“ 万	-0.036906492
-1.0879298	十 万	-0.036906492
-0.7918715	七 万	-0.036906492
-1.7872015	及 物	-0.036906492
-1.2594813	万 物	-0.036906492
-1.092188	物 皆	-0.036906492
-2.349659	<s> 数学有着久远的历史。它被认为起源于人类早期的生产活动；中国古代的六艺之一就有“数”，数学一词在西方有希腊语词源（mathematikós）,	-0.036906492
-0.7940199	数学有着久远的历史。它被认为起源于人类早期的生产活动；中国古代的六艺之一就有“数”，数学一词在西方有希腊语词源（mathematikós）, 意思是“学问的基础”，源于（máthema）（“科学，知识，学问”）。	-0.036906492
-1.9069878	有 着	-0.036906492
-0.7919995	随 着	-0.036906492
-1.092188	着 久	-0.036906492
-0.7940199	久 远	-0.036906492
-2.4041612	的 历	-0.036906492
-1.8797697	在 历	-0.036906492
-1.2591057	从 历	-0.036906492
-0.36483684	历 史	-0.03690652
-1.5538986	。 它	-0.13676994
-1.4769454	成 它	-0.036906492
-1.6774619	被 认	-0.036906492
-1.8482186	为 起	-0.036906492
-1.2654362	人 类	-0.036906492
-1.092188	活 动	-0.036906492
-2.2663972	学 ；	-0.036906492
-0.7919995	动 ；	-0.036906492
-1.8253211	中 国	-0.036906492
-1.088183	美 国	-0.036906492
-2.486889	的 六	-0.036906492
-1.785937	及 之	-0.036906492
-1.0879298	艺 之	-0.036906492
-1.4738656	此 之	-0.036906492
-1.9861394	一 就	-0.036906492
-1.4738656	源 （	-0.036906492
-1.7078485	于 （	-0.036906492
-1.2591057	） （	-0.036906492
-0.58746725	（ m	-0.036906492
-1.088183	e m	-0.13676994
-0.58746725	m a	-0.10086953
-1.088183	h a	-0.036906492
-1.2594813	a t	-0.036906492
-0.7919995	á t	-0.036906492
-0.58746725	t h	-0.13676994
-1.2594813	k h	-0.036906492
-1.088183	h e	-0.13676994
-0.7919995	S e	-0.036906492
-1.2591057	a i	-0.036906492
-1.2617421	t i	-0.036906492
-0.7918715	M i	-0.036906492
-0.58746725	i k	-0.036906492
-0.7919995	u k	-0.036906492
-1.2654362	k ó	-0.036906492
-0.7940199	ó s	-0.036906492
-1.7123063	” ）	-0.036906492
-1.2591057	a ）	-0.036906492
-0.7918715	s ）	-0.036906492
-1.2654362	） ,	-0.036906492
-1.3890669	意 思	-0.036906492
-1.2669628	m á	-0.036906492
-2.349659	<s> 从历史时代的一开始，数学内的主要原理是为了做税务和贸易等相关计算，为了了解数字间的关系，为了测量土地，以及为了预测天文事件而形成的。这些需要可以简单地被概括为数学对数量、结构、空间及时间方面的研究。	-0.036906492
-2.486889	的 主	-0.036906492
-0.7919995	主 要	-0.036906492
-0.7919995	需 要	-0.036906492
-1.092188	要 原	-0.036906492
-2.1702716	数 理	-0.036906492
-1.0750188	物 理	-0.036906492
-0.7852937	原 理	-0.036906492
-0.7852937	定 理	-0.036906492
-0.7852937	推 理	-0.036906492
-0.7852937	弦 理	-0.036906492
-1.8427124	了 做	-0.036906492
-0.7940199	做 税	-0.036906492
-0.7940199	税 务	-0.036906492
-1.7502129	和 贸	-0.036906492
-1.7089047	于 贸	-0.036906492
-1.088183	容 易	-0.036906492
-0.41239157	贸 易	-0.036906492
-2.1546474	学 等	-0.036906492
-1.2463379	易 等	-0.036906492
-0.5851428	初 等	-0.036906492
-1.0792799	化 等	-0.036906492
-0.7874752	辑 等	-0.036906492
-1.4831607	关 计	-0.036906492
-2.2734554	， 算	-0.036906492
-0.7919995	计 算	-0.036906492
-1.8206301	了 解	-0.036906492
-1.5489303	来 解	-0.036906492
-2.2348762	数 字	-0.036906492
-1.6622475	文 字	-0.036906492
-1.3707248	时 间	-0.036906492
-1.5398239	形 间	-0.036906492
-1.0835834	字 间	-0.036906492
-0.7896678	空 间	-0.13676994
-0.8091593	关 系	-0.036906492
-1.5457147	地 测	-0.036906492
-1.8192645	了 测	-0.036906492
-0.7918715	预 测	-0.036906492
-1.360326	数 量	-0.10086953
-2.1698437	的 量	-0.036906492
-1.3462931	与 量	-0.036906492
-0.58289564	测 量	-0.036906492
-1.3530129	大 量	-0.036906492
-1.3530129	变 量	-0.036906492
-0.783123	少 量	-0.036906492
-1.608798	、 土	-0.036906492
-1.7132584	量 土	-0.036906492
-1.8427124	了 预	-0.036906492
-2.408684	的 天	-0.036906492
-1.2620522	测 天	-0.036906492
-2.408684	的 事	-0.036906492
-1.6622475	文 事	-0.036906492
-1.092188	事 件	-0.036906492
-0.72978735	生 成	-0.03690652
-1.607959	且 成	-0.036906492
-1.5503188	形 成	-0.036906492
-2.1646748	。 这	-0.036906492
-2.2734554	， 这	-0.036906492
-1.9592605	一 些	-0.036906492
-1.088183	这 些	-0.036906492
-1.092188	些 需	-0.036906492
-1.559544	以 简	-0.036906492
-0.7940199	简 单	-0.036906492
-1.487196	概 括	-0.036906492
-2.2663972	学 对	-0.036906492
-1.088183	常 对	-0.036906492
-1.6222229	、 结	-0.13676994
-0.7940199	结 构	-0.13676994
-1.6222229	、 空	-0.13676994
-2.349659	<s> 到了16世纪，算术、初等代数、以及三角学等初等数学已大体完备。17世纪变量概念的产生使人们开始研究变化中的量与量的互相关系和图形间的互相变换。在研究经典力学的过程中，发明了微积分。随着自然科学和技术的进一步发展，为研究数学基础而产生的集合论和数理逻辑等也开始慢慢发展。	-0.036906492
-2.3160365	<s> 到	-0.036906492
-1.2617421	得 到	-0.036906492
-0.7918715	感 到	-0.036906492
-1.607959	、 初	-0.036906492
-1.5457147	等 初	-0.036906492
-1.0879298	但 初	-0.036906492
-1.8076087	及 三	-0.036906492
-0.7940199	三 角	-0.036906492
-2.2663972	学 已	-0.036906492
-1.6666467	现 已	-0.036906492
-2.33272	的 大	-0.036906492
-1.0835834	已 大	-0.036906492
-1.3707248	著 大	-0.036906492
-0.7896678	绝 大	-0.036906492
-1.092188	体 完	-0.036906492
-0.7940199	完 备	-0.036906492
-1.5607474	1 7	-0.036906492
-1.764673	及 变	-0.036906492
-1.3707248	纪 变	-0.036906492
-1.4644871	相 变	-0.036906492
-1.533358	究 变	-0.036906492
-1.2594813	人 们	-0.036906492
-0.7919995	我 们	-0.036906492
-0.7128444	变 化	-0.036906492
-1.8895601	的 互	-0.13676994
-1.4744153	相 互	-0.036906492
-1.7689177	和 图	-0.036906492
-1.3890669	变 换	-0.036906492
-1.5580467	究 经	-0.036906492
-0.7940199	经 典	-0.036906492
-0.7940199	典 力	-0.036906492
-2.408684	的 过	-0.036906492
-0.41239157	超 过	-0.036906492
-1.2654362	过 程	-0.036906492
-0.7166581	发 明	-0.08397416
-1.9053819	有 明	-0.036906492
-0.7918715	证 明	-0.036906492
-1.4744153	是 微	-0.036906492
-1.8206301	了 微	-0.036906492
-0.41239157	微 积	-0.13676994
-0.7919995	径 积	-0.036906492
-0.41235253	积 分	-0.03690652
-1.0879298	十 分	-0.036906492
-1.0879298	部 分	-0.036906492
-2.2013452	。 随	-0.036906492
-0.8091593	自 然	-0.13676994
-1.9592605	一 步	-0.036906492
-0.7919995	怯 步	-0.036906492
-2.486889	的 集	-0.036906492
-0.7940199	集 合	-0.036906492
-1.8029268	中 论	-0.036906492
-1.5369358	理 论	-0.036906492
-0.7896678	合 论	-0.036906492
-0.7896678	评 论	-0.036906492
-1.559544	理 逻	-0.036906492
-0.7940199	逻 辑	-0.036906492
-1.5514334	内 也	-0.036906492
-1.5464416	等 也	-0.036906492
-1.2594813	始 慢	-0.036906492
-1.088183	慢 慢	-0.036906492
-2.349659	<s> 数学从古至今便一直不断地延展，且与科学有丰富的相互作用，并使两者都得到好处。数学在历史上有著许多的发现，并且直至今日都还不断地发现中。依据Mikhail	-0.036906492
-0.7940199	数学从古至今便一直不断地延展，且与科学有丰富的相互作用，并使两者都得到好处。数学在历史上有著许多的发现，并且直至今日都还不断地发现中。依据Mikhail B.	-0.036906492
-0.7940199	B. Sevryuk于美国数学会通报2006年1月的期刊中所说，“存在于数学评论资料库中论文和书籍的数量自1940年(数学评论的创刊年份)现已超过了一百九十万份，而且每年还增加超过七万五千份的细目。此一学海的绝大部份为新的数学定理及其证明。”	-0.036906492
-1.5580467	地 延	-0.036906492
-1.9330813	有 丰	-0.036906492
-0.7940199	丰 富	-0.036906492
-1.7154179	， 并	-0.036906492
-1.5580467	使 两	-0.036906492
-2.2628238	学 者	-0.036906492
-1.4712875	明 者	-0.036906492
-0.7918715	两 者	-0.036906492
-2.2628238	学 都	-0.036906492
-1.379184	日 都	-0.036906492
-1.2591057	者 都	-0.036906492
-1.5457147	使 得	-0.036906492
-1.2591057	都 得	-0.036906492
-0.7918715	值 得	-0.036906492
-1.2654362	到 好	-0.036906492
-0.7940199	好 处	-0.036906492
-1.8797697	在 著	-0.036906492
-1.9053819	有 著	-0.036906492
-0.7918715	含 著	-0.036906492
-1.8192645	了 许	-0.036906492
-1.379184	著 许	-0.036906492
-1.0879298	他 许	-0.036906492
-2.2013452	。 依	-0.036906492
-0.7940199	依 据	-0.036906492
-0.7940199	据 M	-0.036906492
-1.2669628	i l	-0.036906492
-0.7940199	l B	-0.036906492
-0.7940199	B .	-0.036906492
-0.7940199	. S	-0.036906492
-1.092188	e v	-0.036906492
-0.7940199	v r	-0.036906492
-0.7940199	r y	-0.036906492
-0.7940199	y u	-0.036906492
-2.2663972	学 通	-0.036906492
-1.2594813	会 通	-0.036906492
-1.092188	通 报	-0.036906492
-0.7940199	报 2	-0.036906492
-0.7918715	2 0	-0.036906492
-1.2591057	0 0	-0.036906492
-0.7918715	4 0	-0.036906492
-1.0835834	6 年	-0.036906492
-1.2526748	0 年	-0.036906492
-1.0835834	刊 年	-0.036906492
-0.7896678	每 年	-0.036906492
-1.5607474	1 月	-0.036906492
-1.2594813	期 刊	-0.036906492
-0.7919995	创 刊	-0.036906492
-1.8240643	中 所	-0.036906492
-2.2701967	， 所	-0.036906492
-1.5503188	今 所	-0.036906492
-1.2654362	所 说	-0.036906492
-1.7169569	“ 存	-0.036906492
-1.379184	亦 存	-0.036906492
-1.2591057	都 存	-0.036906492
-2.3269074	学 评	-0.13676994
-1.4816539	论 资	-0.036906492
-0.7940199	资 料	-0.036906492
-0.7940199	料 库	-0.036906492
-1.7490515	和 书	-0.036906492
-1.379184	式 书	-0.036906492
-1.2591057	法 书	-0.036906492
-1.2669628	书 籍	-0.036906492
-1.5607474	1 9	-0.036906492
-0.7940199	9 4	-0.036906492
-1.3875502	年 (	-0.036906492
-2.486889	的 创	-0.036906492
-1.2526748	万 份	-0.036906492
-1.3707248	年 份	-0.036906492
-0.7896678	千 份	-0.036906492
-1.0835834	部 份	-0.036906492
-1.3875502	份 )	-0.036906492
-1.088183	加 超	-0.036906492
-1.088183	已 超	-0.036906492
-1.9861394	一 百	-0.036906492
-0.7940199	百 九	-0.036906492
-1.088183	也 十	-0.036906492
-0.7919995	九 十	-0.036906492
-1.6222229	且 每	-0.036906492
-1.2654362	还 增	-0.036906492
-1.2654362	过 七	-0.036906492
-1.2654362	万 五	-0.036906492
-0.7940199	五 千	-0.036906492
-2.486889	的 细	-0.036906492
-0.7940199	细 目	-0.036906492
-2.3269074	学 海	-0.036906492
-2.486889	的 绝	-0.036906492
-0.7128444	大 部	-0.036906492
-2.3269074	学 定	-0.036906492
-1.7273477	其 证	-0.036906492
-2.349659	<s> 数学出现于包含著数量、结构、空间及变化等困难问题内。一开始，出现于贸易、土地测量及之后的天文学；今日，所有的科学都存在著值得数学家研究的问题，且数学本身亦存在了许多的问题。牛顿和莱布尼兹是微积分的发明者，费曼发明了费曼路径积分，来用于推理及物理的洞察，而今日的弦理论亦生成为新的数学。一些数学只和生成它的领域有关，且用来解答此领域的更多问题。但一般被一领域生成的数学在其他许多领域内也十分有用，且成为数学概念的一般知识。即使是“最纯的”数学通常亦有实际的用途，此一卓越的事实，被维格纳称为“数学在自然科学中不可想像的有效性”。	-0.036906492
-2.2053761	学 出	-0.036906492
-2.2175	， 出	-0.036906492
-1.4608537	明 出	-0.036906492
-1.0835834	写 出	-0.036906492
-1.7089047	于 包	-0.036906492
-1.4718997	号 包	-0.036906492
-0.41300693	包 含	-0.13676994
-1.5580467	等 困	-0.036906492
-1.7502129	和 难	-0.036906492
-0.7919995	困 难	-0.036906492
-0.6647994	问 题	-0.08397416
-1.3796793	纪 后	-0.036906492
-1.2594813	之 后	-0.036906492
-1.3875502	著 值	-0.036906492
-2.2663972	学 家	-0.036906492
-0.7919995	专 家	-0.036906492
-1.2654362	本 身	-0.036906492
-2.2013452	。 牛	-0.036906492
-0.7940199	牛 顿	-0.036906492
-1.7689177	和 莱	-0.036906492
-0.7940199	莱 布	-0.036906492
-0.7940199	布 尼	-0.036906492
-0.7940199	尼 兹	-0.036906492
-2.2734554	， 费	-0.036906492
-1.8206301	了 费	-0.036906492
-0.41300693	费 曼	-0.036906492
-1.092188	曼 路	-0.036906492
-0.7940199	路 径	-0.036906492
-1.7258787	于 推	-0.036906492
-2.486889	的 洞	-0.036906492
-0.7940199	洞 察	-0.036906492
-2.486889	的 弦	-0.036906492
-2.3269074	学 只	-0.036906492
-2.33272	的 领	-0.036906492
-1.9300344	一 领	-0.036906492
-1.4644871	此 领	-0.036906492
-1.3707248	多 领	-0.036906492
-0.24126904	领 域	-0.036906492
-1.092188	解 答	-0.036906492
-2.408684	的 更	-0.036906492
-1.088183	言 更	-0.036906492
-2.1646748	。 但	-0.036906492
-2.2734554	， 但	-0.036906492
-1.1135842	一 般	-0.03690652
-1.0620598	其 他	-0.036906492
-1.7312808	“ 最	-0.036906492
-0.7940199	最 纯	-0.036906492
-1.088183	通 常	-0.036906492
-0.7919995	却 常	-0.036906492
-1.9069878	有 实	-0.036906492
-1.088183	事 实	-0.036906492
-1.092188	实 际	-0.036906492
-1.7718422	用 途	-0.036906492
-1.9861394	一 卓	-0.036906492
-0.7940199	卓 越	-0.036906492
-1.6774619	被 维	-0.036906492
-0.7940199	维 格	-0.036906492
-0.7940199	格 纳	-0.036906492
-0.7940199	纳 称	-0.036906492
-1.4816539	可 想	-0.036906492
-0.7940199	想 像	-0.036906492
-1.9330813	有 效	-0.036906492
-2.349659	<s> 我们现今所使用的大部分数学符号在16世纪后才被发明出来的。在此之前，数学以文字的形式书写出来，这种形式会限制了数学的发展。现今的符号使得数学对于专家而言更容易去控作，但初学者却常对此感到怯步。它被极度的压缩：少量的符号包含著大量的讯息。如同音乐符号一般，现今的数学符号有明确的语法和难以以其他方法书写的讯息编码。	-0.036906492
-2.349659	<s> 我	-0.036906492
-2.2628238	学 符	-0.13676994
-1.8881865	的 符	-0.13676994
-0.7918715	乐 符	-0.036906492
-0.36483684	符 号	-0.036906492
-1.092188	后 才	-0.036906492
-1.2654362	之 前	-0.036906492
-0.5885015	书 写	-0.036906492
-1.092188	这 种	-0.036906492
-1.2654362	会 限	-0.036906492
-0.7940199	限 制	-0.036906492
-1.7258787	于 专	-0.036906492
-1.2654362	易 去	-0.036906492
-0.7940199	去 控	-0.036906492
-1.2654362	者 却	-0.036906492
-1.4831607	此 感	-0.036906492
-1.2654362	到 怯	-0.036906492
-1.6774619	被 极	-0.036906492
-2.486889	的 压	-0.036906492
-0.7940199	压 缩	-0.036906492
-0.7940199	缩 ：	-0.036906492
-0.7940199	： 少	-0.036906492
-1.9117756	的 讯	-0.13676994
-0.7940199	讯 息	-0.036906492
-2.2013452	。 如	-0.036906492
-0.7940199	如 同	-0.036906492
-0.7940199	同 音	-0.036906492
-0.7940199	音 乐	-0.036906492
-1.4816539	明 确	-0.036906492
-1.092188	息 编	-0.036906492
-0.7940199	编 码	-0.036906492

\3-grams:
-0.6246239	<s> 数学 </s>
-1.8530729	数 学 </s>
-0.6246239	<s> 基础数学的知识与运用总是个人与团体生活中不可或缺的一块。其基本概念的精炼早在古埃及、美索不达米亚及古印度内的古代数学文本内便可观见。从那时开始，其发展便持续不断地有小幅的进展，直至16世纪的文艺复兴时期，因为和新的科学发现相作用而产生的数学革新导致了知识的加速发展，直至今日。 </s>
-0.59183174	念 。 </s>
-0.66711146	展 。 </s>
-0.59183174	日 。 </s>
-0.59183174	” 。 </s>
-0.59183174	究 。 </s>
-0.59183174	） 。 </s>
-0.59183174	码 。 </s>
-0.6246239	'，由西塞罗译自希腊文复数 ，此一希腊语被亚里士多德拿来指“万物皆数”的概念。 </s>
-0.9746197	。 ” </s>
-0.6246239	数学有着久远的历史。它被认为起源于人类早期的生产活动；中国古代的六艺之一就有“数”，数学一词在西方有希腊语词源（mathematikós）, 意思是“学问的基础”，源于（máthema）（“科学，知识，学问”）。 </s>
-0.6246239	<s> 从历史时代的一开始，数学内的主要原理是为了做税务和贸易等相关计算，为了了解数字间的关系，为了测量土地，以及为了预测天文事件而形成的。这些需要可以简单地被概括为数学对数量、结构、空间及时间方面的研究。 </s>
-0.6246239	<s> 到了16世纪，算术、初等代数、以及三角学等初等数学已大体完备。17世纪变量概念的产生使人们开始研究变化中的量与量的互相关系和图形间的互相变换。在研究经典力学的过程中，发明了微积分。随着自然科学和技术的进一步发展，为研究数学基础而产生的集合论和数理逻辑等也开始慢慢发展。 </s>
-0.6246239	B. Sevryuk于美国数学会通报2006年1月的期刊中所说，“存在于数学评论资料库中论文和书籍的数量自1940年(数学评论的创刊年份)现已超过了一百九十万份，而且每年还增加超过七万五千份的细目。此一学海的绝大部份为新的数学定理及其证明。” </s>
-0.6246239	<s> 数学出现于包含著数量、结构、空间及变化等困难问题内。一开始，出现于贸易、土地测量及之后的天文学；今日，所有的科学都存在著值得数学家研究的问题，且数学本身亦存在了许多的问题。牛顿和莱布尼兹是微积分的发明者，费曼发明了费曼路径积分，来用于推理及物理的洞察，而今日的弦理论亦生成为新的数学。一些数学只和生成它的领域有关，且用来解答此领域的更多问题。但一般被一领域生成的数学在其他许多领域内也十分有用，且成为数学概念的一般知识。即使是“最纯的”数学通常亦有实际的用途，此一卓越的事实，被维格纳称为“数学在自然科学中不可想像的有效性”。 </s>
-0.6246239	<s> 我们现今所使用的大部分数学符号在16世纪后才被发明出来的。在此之前，数学以文字的形式书写出来，这种形式会限制了数学的发展。现今的符号使得数学对于专家而言更容易去控作，但初学者却常对此感到怯步。它被极度的压缩：少量的符号包含著大量的讯息。如同音乐符号一般，现今的数学符号有明确的语法和难以以其他方法书写的讯息编码。 </s>
-1.0218543	基 础 数
-0.9932134	生 的 数
-0.6333676	新 的 数
-0.9932134	今 的 数
-0.9932134	成 的 数
-0.8467653	籍 的 数
-0.99729466	处 。 数
-0.6349668	古 代 数
-0.56464624	等 代 数
-1.1456875	始 ， 数
-1.1456875	” ， 数
-0.9002704	前 ， 数
-0.288831	的 复 数
-0.288831	文 复 数
-0.288831	性 复 数
-0.288831	面 复 数
-0.9371225	成 为 数
-0.8060037	括 为 数
-0.9385694	论 和 数
-0.94788146	制 了 数
-0.4809968	中 “ 数
-0.4809968	有 “ 数
-0.4809968	为 “ 数
-0.4809968	－ “ 数
-0.9401653	的 ” 数
-0.93247056	在 于 数
-0.95786667	指 " 数
-1.2191381	， 且 数
-1.2435354	研 究 数
-0.6070358	物 皆 数
-0.75984496	美 国 数
-1.0745125	初 等 数
-0.75984496	了 解 数
-0.75984496	一 些 数
-0.9638877	学 对 数
-0.88653743	部 分 数
-0.4772572	使 得 数
-0.4772572	值 得 数
-1.0156872	含 著 数
-0.6070358	年 ( 数
-0.13532048	<s> 数 学
-0.20317107	础 数 学
-0.12745205	的 数 学
-0.20317107	。 数 学
-0.23237501	代 数 学
-0.19175851	， 数 学
-0.15297085	为 数 学
-0.20317107	了 数 学
-0.2086545	“ 数 学
-0.20317107	” 数 学
-0.20317107	于 数 学
-0.20317107	" 数 学
-0.20317107	且 数 学
-0.20317107	究 数 学
-0.20317107	国 数 学
-0.20317107	等 数 学
-0.20317107	些 数 学
-0.20317107	分 数 学
-0.15297085	得 数 学
-0.20317107	( 数 学
-1.3706489	此 一 学
-1.1751812	天 文 学
-1.0386319	识 ， 学
-0.9834854	" 和 学
-0.123023674	的 科 学
-0.16144116	与 科 学
-0.16144116	“ 科 学
-0.16144116	" 科 学
-0.123023674	然 科 学
-1.2001345	是 “ 学
-0.9727876	、 " 学
-0.8320887	有 " 学
-0.86423475	但 初 学
-0.6273941	三 角 学
-0.6273941	典 力 学
-2.1005757	数 学 基
-1.066821	问 的 基
-1.3394871	。 其 基
-0.42124873	<s> 基 础
-0.42124873	学 基 础
-0.42124873	的 基 础
-1.2106789	数 学 的
-0.87192035	力 学 的
-1.0190728	知 识 的
-0.8838825	使 用 的
-0.6440786	产 生 的
-0.8697388	语 中 的
-0.75519794	化 中 的
-0.57386225	或 缺 的
-0.69876444	概 念 的
-0.7134075	极 度 的
-0.6358734	学 内 的
-0.6358734	度 内 的
-0.60888726	古 代 的
-0.5423671	时 代 的
-0.8586188	丁 文 的
-0.89096653	所 有 的
-0.57386225	小 幅 的
-1.0190728	世 纪 的
-0.7720518	早 期 的
-0.3160596	为 新 的
-0.45676315	和 新 的
-0.6398074	现 今 的
-1.0190728	今 日 的
-1.0884967	腊 语 的
-1.0383708	数 ” 的
-1.0755677	学 问 的
-0.89181024	技 术 的
-0.7720518	术 性 的
-1.1152278	研 究 的
-0.9805531	有 关 的
-0.57386225	用 功 的
-0.9983285	出 来 的
-0.7720518	方 面 的
-0.7134075	面 上 的
-0.61061627	许 多 的
-0.57386225	久 远 的
-0.7134075	成 它 的
-0.85041004	物 理 的
-0.7134075	文 字 的
-0.53456396	形 间 的
-0.53456396	字 间 的
-0.60565674	与 量 的
-0.60565674	大 量 的
-0.60565674	少 量 的
-0.7007425	生 成 的
-0.59602463	形 成 的
-1.0215386	积 分 的
-0.9636115	评 论 的
-0.57386225	丰 富 的
-0.57386225	1 月 的
-0.57386225	书 籍 的
-0.80463845	千 份 的
-0.57386225	学 海 的
-0.7134075	之 后 的
-1.0190728	领 域 的
-0.57386225	最 纯 的
-0.57386225	实 际 的
-0.57386225	卓 越 的
-0.57386225	想 像 的
-0.8160877	书 写 的
-0.57386225	明 确 的
-1.6084143	学 的 知
-1.0602996	学 ， 知
-1.0170494	致 了 知
-1.1051738	一 般 知
-0.21574908	的 知 识
-0.21574908	， 知 识
-0.21574908	了 知 识
-0.21574908	般 知 识
-1.2255948	知 识 与
-0.8767847	个 人 与
-1.3587697	， 且 与
-1.0001822	的 量 与
-0.92408663	识 与 运
-1.0507216	际 的 用
-0.6301821	与 运 用
-1.0120841	分 有 用
-0.4911998	相 作 用
-0.4911998	互 作 用
-1.0039928	或 " 用
-1.3228658	， 且 用
-0.95023406	所 使 用
-0.97456205	会 被 用
-0.95240366	， 来 用
-1.013217	运 用 总
-0.6358124	用 总 是
-1.165018	即 使 是
-0.6358124	意 思 是
-0.963232	原 理 是
-0.6358124	尼 兹 是
-0.9497026	总 是 个
-1.0322242	还 有 个
-0.8055208	是 个 人
-1.2311127	源 于 人
-0.96813095	生 使 人
-0.92408663	人 与 团
-0.63873774	与 团 体
-0.9223961	已 大 体
-1.0603094	期 的 生
-0.7992835	团 体 生
-0.9995526	只 和 生
-0.49370742	的 产 生
-0.33690548	而 产 生
-0.91329837	论 亦 生
-1.2147143	领 域 生
-0.98359716	体 生 活
-0.8803856	生 产 活
-1.6511599	科 学 中
-1.0444454	文 的 中
-0.78908306	生 活 中
-1.2815765	发 现 中
-0.75144815	英 语 中
-0.75144815	法 语 中
-0.78908306	语 言 中
-0.78908306	动 ； 中
-0.91439205	变 化 中
-0.6273941	过 程 中
-0.78908306	期 刊 中
-0.6273941	料 库 中
-0.84337014	学 中 不
-0.84337014	活 中 不
-0.6358124	美 索 不
-0.6358124	持 续 不
-0.8762033	一 直 不
-0.8743242	都 还 不
-0.5301285	中 不 可
-0.8767847	内 便 可
-1.3344052	' ， 可
-0.8034317	需 要 可
-1.1443425	不 可 或
-1.389178	的 " 或
-0.80755687	可 或 缺
-1.8745584	数 学 一
-0.9737619	缺 的 一
-1.2847098	念 的 一
-1.1838055	代 的 一
-0.95007986	学 。 一
-1.1460197	内 。 一
-0.85748005	今 便 一
-0.91170967	的 进 一
-0.9906055	过 了 一
-0.9773868	学 ” 一
-0.965388	般 被 一
-0.6369098	。 此 一
-0.41033056	， 此 一
-0.85748005	艺 之 一
-0.7870714	。 但 一
-1.2666689	符 号 一
-1.4360477	的 一 块
-1.6546298	数 学 。
-0.9681905	来 的 。
-1.1748044	成 的 。
-1.12303	知 识 。
-0.9572077	现 中 。
-0.6083637	一 块 。
-0.9628998	概 念 。
-0.66846585	源 内 。
-0.66846585	题 内 。
-0.6083637	观 见 。
-0.8389234	发 展 。
-1.12303	今 日 。
-0.9427207	性 ” 。
-1.2578915	的 " 。
-1.2493149	研 究 。
-1.0253142	历 史 。
-0.8278324	” ） 。
-0.6083637	完 备 。
-0.6083637	变 换 。
-0.8890683	证 明 。
-1.1261652	积 分 。
-0.7617341	怯 步 。
-0.6083637	好 处 。
-0.6083637	细 目 。
-0.7091666	问 题 。
-0.87826705	讯 息 。
-0.6083637	编 码 。
-0.90378845	块 。 其
-1.0753884	内 。 其
-0.90378845	" 。 其
-1.0923432	学 在 其
-0.86915576	使 在 其
-1.241991	理 及 其
-0.9954779	的 ， 其
-1.3303708	始 ， 其
-0.963232	以 以 其
-2.1393175	数 学 本
-0.9229272	其 基 本
-0.993513	学 文 本
-2.0650089	数 学 概
-1.0635531	” 的 概
-0.8743242	基 本 概
-0.9871037	地 被 概
-0.9972665	变 量 概
-0.29819185	学 概 念
-0.29819185	的 概 念
-0.29819185	本 概 念
-0.29819185	量 概 念
-1.5207094	念 的 精
-0.64004064	的 精 炼
-0.63873774	精 炼 早
-0.63873774	人 类 早
-1.6993461	数 学 在
-1.1563182	的 。 在
-0.9566105	换 。 在
-1.3070633	。 其 在
-0.79313457	炼 早 在
-0.99553317	， 及 在
-1.0820397	一 词 在
-1.1462618	即 使 在
-0.3173648	“ 存 在
-0.3173648	亦 存 在
-0.3173648	都 存 在
-1.2852261	符 号 在
-1.3344238	内 的 古
-1.0188096	早 在 古
-1.0053742	亚 及 古
-0.87187755	学 从 古
-0.9925417	自 于 古
-0.7992835	中 国 古
-0.97145045	在 古 埃
-0.63298815	古 埃 及
-0.79722416	米 亚 及
-1.0508808	式 ， 及
-0.6907341	、 以 及
-0.4348845	， 以 及
-0.6907341	定 理 及
-0.6907341	推 理 及
-0.5192294	空 间 及
-1.2129416	测 量 及
-1.3258603	代 数 、
-1.002069	埃 及 、
-0.83986557	习 " 、
-0.83986557	问 " 、
-0.8694446	算 术 、
-1.0253313	贸 易 、
-0.70376533	数 量 、
-0.4084768	结 构 、
-0.98263526	及 、 美
-1.0025053	k 于 美
-0.80755687	、 美 索
-0.95241207	索 不 达
-0.64004064	不 达 米
-0.63873774	达 米 亚
-0.9937001	语 被 亚
-0.97145045	及 古 印
-0.63873774	古 印 度
-0.63873774	被 极 度
-2.0321357	数 学 内
-0.87187755	文 本 内
-0.7992835	印 度 内
-0.9418097	语 源 内
-1.1688702	问 题 内
-1.2147143	领 域 内
-0.6966284	的 古 代
-0.6966284	国 古 代
-0.9214258	史 时 代
-1.1747087	初 等 代
-2.0015764	数 学 文
-1.0570899	纪 的 文
-1.018676	希 腊 文
-0.9577841	学 以 文
-0.63298815	拉 丁 文
-0.35744086	的 天 文
-0.35744086	测 天 文
-0.93734425	中 论 文
-0.96936816	本 内 便
-1.3772731	发 展 便
-1.3055476	至 今 便
-0.9516769	便 可 观
-0.64004064	可 观 见
-2.1393175	数 学 从
-1.0565617	见 。 从
-0.8816732	。 从 那
-1.24775	间 及 时
-0.6372314	从 那 时
-0.6372314	复 兴 时
-1.1051738	历 史 时
-1.1488032	的 一 开
-1.0727929	。 一 开
-0.91869974	那 时 开
-0.8034317	人 们 开
-0.8034317	等 也 开
-0.16183631	一 开 始
-0.21574908	时 开 始
-0.21574908	们 开 始
-0.21574908	也 开 始
-1.4850233	复 数 ，
-1.421006	科 学 ，
-0.98080266	语 的 ，
-1.0895526	知 识 ，
-0.75937605	有 用 ，
-0.8751857	作 用 ，
-0.9361021	程 中 ，
-0.83941394	开 始 ，
-0.49087286	发 展 ，
-0.4703017	进 展 ，
-0.4703017	延 展 ，
-1.0480998	土 地 ，
-1.0895526	世 纪 ，
-0.81054515	时 期 ，
-1.1746981	发 现 ，
-0.8229729	控 作 ，
-1.0895526	今 日 ，
-0.71128213	数 ” ，
-0.62866515	础 ” ，
-0.62866515	究 ” ，
-0.85637265	容 词 ，
-0.79164016	学 " ，
-0.96957606	的 " ，
-1.0372285	有 关 ，
-1.0588167	出 来 ，
-1.0895526	形 式 ，
-0.34348103	数 ' ，
-0.34348103	式 ' ，
-0.74684614	计 算 ，
-0.8588978	关 系 ，
-1.0924546	积 分 ，
-0.81054515	明 者 ，
-0.59785223	所 说 ，
-0.8462795	万 份 ，
-1.0651741	问 题 ，
-0.59785223	洞 察 ，
-0.9983776	一 般 ，
-0.74684614	事 实 ，
-0.59785223	用 途 ，
-0.59785223	之 前 ，
-1.6651795	科 学 发
-1.3582251	学 的 发
-1.1924802	多 的 发
-0.9790896	分 的 发
-1.196557	， 其 发
-1.0416619	中 ， 发
-1.2322296	断 地 发
-0.62878585	加 速 发
-0.97148246	才 被 发
-0.7911041	一 步 发
-0.7911041	慢 慢 发
-0.91709113	费 曼 发
-0.55272555	的 发 展
-0.47574908	其 发 展
-0.47574908	速 发 展
-0.47574908	步 发 展
-0.47574908	慢 发 展
-0.93646955	的 进 展
-0.6386551	地 延 展
-0.8816732	展 便 持
-0.64004064	便 持 续
-0.49516588	续 不 断
-0.49516588	直 不 断
-0.49516588	还 不 断
-0.5781045	不 断 地
-0.35962895	、 土 地
-0.35962895	量 土 地
-0.6386551	简 单 地
-1.565876	数 学 有
-1.4257541	科 学 有
-1.0351979	像 的 有
-1.1775978	， 其 有
-1.2104118	断 地 有
-1.0585002	西 方 有
-0.906394	学 习 有
-0.85278505	外 还 有
-0.8923408	常 亦 有
-0.7830758	史 上 有
-0.62324536	一 就 有
-0.9179276	十 分 有
-0.85278505	， 所 有
-1.1737292	领 域 有
-1.2547239	符 号 有
-1.035339	地 有 小
-0.64004064	有 小 幅
-1.0328081	幅 的 进
-1.0328081	术 的 进
-1.0381198	便 一 直
-0.85541916	展 ， 直
-0.98245287	并 且 直
-0.9687491	从 古 至
-0.33830035	， 直 至
-0.4962296	且 直 至
-0.6386551	可 溯 至
-1.0483569	备 。 1
-1.0188096	号 在 1
-1.2093036	直 至 1
-1.0102859	到 了 1
-0.9418097	量 自 1
-0.91329837	6 年 1
-0.5516171	在 1 6
-0.5516171	至 1 6
-0.5516171	了 1 6
-0.8794031	0 0 6
-0.7119789	1 6 世
-0.63873774	1 7 世
-0.33581543	6 世 纪
-0.36016124	7 世 纪
-0.9937001	的 文 艺
-0.63873774	的 六 艺
-1.0635531	上 的 复
-0.9871037	腊 文 复
-0.8013527	文 艺 复
-0.8743242	中 性 复
-1.0323352	表 面 复
-0.9531723	艺 复 兴
-1.0701137	月 的 期
-0.8055208	类 早 期
-0.9214258	兴 时 期
-1.0665977	期 ， 因
-0.93169713	理 是 为
-1.3235325	以 及 为
-1.2922142	展 ， 为
-0.9369034	算 ， 为
-0.9369034	系 ， 为
-0.62878585	， 因 为
-0.91709113	意 义 为
-0.62878585	被 认 为
-0.7586752	生 成 为
-0.64087796	且 成 为
-0.62878585	概 括 为
-0.90269315	部 份 为
-0.62878585	纳 称 为
-1.6651795	科 学 和
-0.97148246	论 文 和
-1.0022337	因 为 和
-1.0011396	为 " 和
-0.86222637	语 法 和
-0.62878585	税 务 和
-0.91709113	关 系 和
-0.92891634	合 论 和
-0.62878585	牛 顿 和
-0.62878585	学 只 和
-0.99490476	成 为 新
-0.8479718	份 为 新
-1.0094862	为 和 新
-0.6386551	学 革 新
-1.0238916	有 的 科
-1.4142058	新 的 科
-0.91599065	且 与 科
-0.9988118	（ “ 科
-1.2538521	、 " 科
-0.40981275	自 然 科
-1.3122206	展 。 现
-1.0539978	般 ， 现
-0.73885757	学 发 现
-0.89232785	的 发 现
-0.73885757	地 发 现
-0.7992835	我 们 现
-0.634398	份 ) 现
-0.5825971	学 出 现
-0.5825971	， 出 现
-1.066821	富 的 相
-1.3219533	发 现 相
-0.9650965	易 等 相
-0.4810087	的 互 相
-0.9495517	现 相 作
-0.8055208	相 互 作
-0.6386551	去 控 作
-1.1010188	基 础 而
-1.234572	作 用 而
-0.9954779	份 ， 而
-0.9954779	察 ， 而
-0.6358124	事 件 而
-0.8013527	专 家 而
-1.5117537	念 的 产
-0.9834396	的 生 产
-0.6966284	础 而 产
-0.6966284	用 而 产
-2.180519	数 学 革
-0.8822521	革 新 导
-0.64004064	新 导 致
-1.3675486	存 在 了
-0.7328764	是 为 了
-0.7328764	及 为 了
-0.5695406	， 为 了
-0.63158286	导 致 了
-1.4194596	为 了 了
-0.86702514	<s> 到 了
-1.0218713	超 过 了
-0.77908766	发 明 了
-0.63158286	限 制 了
-1.0703053	识 的 加
-0.63873774	还 增 加
-0.80755687	的 加 速
-0.58388186	古 至 今
-0.47524408	直 至 今
-0.63436574	。 现 今
-0.63436574	， 现 今
-0.63436574	们 现 今
-1.1712557	， 而 今
-0.8034317	学 ； 今
-0.45391357	至 今 日
-0.5525106	而 今 日
-0.5525106	； 今 日
-0.64004064	<s> 西方语言中“数学”一词源自于古希腊语的，其有"学习"、"学问"、"科学"，以及另外还有个较狭意且技术性的意义－“数学研究”，即使在其语源内。其形容词 ，意义为"和学习有关的"或"用功的"，亦会被用来指"数学的"。其在英语中表面上的复数形式，及在法语中的表面复数形式
-0.64004064	西方语言中“数学”一词源自于古希腊语的，其有"学习"、"学问"、"科学"，以及另外还有个较狭意且技术性的意义－“数学研究”，即使在其语源内。其形容词 ，意义为"和学习有关的"或"用功的"，亦会被用来指"数学的"。其在英语中表面上的复数形式，及在法语中的表面复数形式 '，可溯至拉丁文的中性复数
-0.64004064	，意义为"和学习有关的"或"用功的"，亦会被用来指"数学的"。其在英语中表面上的复数形式，及在法语中的表面复数形式 '，可溯至拉丁文的中性复数 '，由西塞罗译自希腊文复数
-0.64004064	'，可溯至拉丁文的中性复数 '，由西塞罗译自希腊文复数 ，此一希腊语被亚里士多德拿来指“万物皆数”的概念。
-1.0287954	词 在 西
-0.6386551	， 由 西
-0.4962296	<s> 西 方
-0.4962296	在 西 方
-0.9222587	时 间 方
-0.93646955	其 他 方
-1.0603094	确 的 语
-1.2163818	在 其 语
-1.0895826	西 方 语
-0.7784628	希 腊 语
-0.634398	在 英 语
-0.87187755	在 法 语
-0.96891	家 而 言
-0.9941791	方 语 言
-0.64200985	使 是 “
-0.64200985	思 是 “
-1.0057827	言 中 “
-1.047786	说 ， “
-1.015345	就 有 “
-1.0077341	称 为 “
-0.63158286	义 － “
-0.9225402	来 指 “
-0.87017775	） （ “
-1.352407	“ 数 ”
-0.9732343	皆 数 ”
-1.973027	数 学 ”
-1.0887871	基 础 ”
-1.0538942	纯 的 ”
-1.0429718	明 。 ”
-1.2503489	学 问 ”
-0.86702514	效 性 ”
-1.361556	研 究 ”
-0.9043453	学 一 词
-0.9043453	” 一 词
-1.3271912	腊 语 词
-0.8055208	形 容 词
-1.4851443	” ， 源
-0.99100006	其 语 源
-0.6576731	一 词 源
-0.58388186	语 词 源
-0.6372314	为 起 源
-1.3901633	学 在 自
-1.1370956	词 源 自
-0.6358124	罗 译 自
-0.8013527	随 着 自
-1.3595768	数 量 自
-0.9984855	来 用 于
-1.3749567	存 在 于
-0.5405788	出 现 于
-0.6432943	， 源 于
-0.6432943	起 源 于
-0.9392594	源 自 于
-0.8694446	u k 于
-1.0253313	学 对 于
-1.4208169	此 一 希
-0.9659818	于 古 希
-1.028639	方 有 希
-0.9469557	译 自 希
-0.21574908	一 希 腊
-0.21574908	古 希 腊
-0.21574908	有 希 腊
-0.21574908	自 希 腊
-1.6796668	科 学 "
-1.3646898	学 的 "
-0.98177826	关 的 "
-0.98177826	功 的 "
-0.79313457	" 或 "
-0.53498435	" 、 "
-1.0120841	其 有 "
-1.0049752	义 为 "
-0.91980714	学 习 "
-1.2454858	学 问 "
-0.91980714	来 指 "
-1.0049797	和 学 习
-1.2356362	" 学 习
-0.95310825	， 学 问
-0.95310825	“ 学 问
-1.1507843	" 学 问
-1.0268734	究 的 问
-1.2735589	多 的 问
-0.91869974	更 多 问
-0.8034317	困 难 问
-2.0321357	数 学 以
-0.9401903	要 可 以
-0.97311234	数 、 以
-0.9927526	地 ， 以
-1.2150409	" ， 以
-0.96049947	难 以 以
-0.7992835	和 难 以
-1.3823556	以 及 另
-0.64004064	及 另 外
-0.6386551	另 外 还
-0.87925935	日 都 还
-0.9214258	每 年 还
-0.80755687	有 个 较
-0.64004064	个 较 狭
-1.066821	性 的 意
-1.0602996	词 ， 意
-0.6372314	较 狭 意
-0.6372314	） , 意
-1.0317254	用 ， 且
-1.1724734	展 ， 且
-0.87390035	关 ， 且
-0.87390035	题 ， 且
-1.1712557	， 而 且
-0.9198936	狭 意 且
-0.9336477	， 并 且
-1.0096803	学 和 技
-0.98263526	意 且 技
-0.3596607	和 技 术
-0.3596607	且 技 术
-0.8056421	， 算 术
-1.0211684	的 中 性
-1.0394537	技 术 性
-0.6386551	有 效 性
-0.5860306	的 意 义
-0.5860306	， 意 义
-0.9392245	意 义 －
-2.0321357	数 学 研
-1.0603094	面 的 研
-1.2594277	。 在 研
-1.1692618	开 始 研
-1.3920597	， 为 研
-0.7992835	学 家 研
-0.13136083	学 研 究
-0.13136083	的 研 究
-0.13136083	在 研 究
-0.13136083	始 研 究
-0.13136083	为 研 究
-0.13136083	家 研 究
-1.0567217	识 。 即
-1.4941684	” ， 即
-1.3221565	产 生 使
-0.35853356	。 即 使
-0.35853356	， 即 使
-0.93084407	， 并 使
-0.8743242	今 所 使
-1.3112708	符 号 使
-0.8518705	复 数 形
-1.0603094	字 的 形
-1.3262258	。 其 形
-0.96049947	件 而 形
-0.634398	和 图 形
-0.634398	这 种 形
-0.96939343	其 形 容
-0.8056421	言 更 容
-1.3530408	间 的 关
-0.8849258	习 有 关
-0.8849258	域 有 关
-0.6484703	等 相 关
-0.735354	互 相 关
-1.013217	" 用 功
-1.3344052	" ， 亦
-0.945939	理 论 亦
-0.6372314	本 身 亦
-0.8034317	通 常 亦
-2.1393175	数 学 会
-0.9214258	， 亦 会
-1.231139	形 式 会
-1.0508808	实 ， 被
-0.9561181	单 地 被
-1.3019662	腊 语 被
-0.8694446	亦 会 被
-0.47865057	。 它 被
-1.0928262	一 般 被
-0.63298815	后 才 被
-0.8110679	且 用 来
-0.8110679	被 用 来
-1.0602996	分 ， 来
-0.6372314	德 拿 来
-0.5844337	明 出 来
-0.5844337	写 出 来
-0.79674923	用 来 指
-0.69806993	拿 来 指
-1.0320739	其 在 英
-1.3534083	中 的 表
-1.2638582	语 中 表
-0.9215843	间 方 面
-0.3596607	的 表 面
-0.3596607	中 表 面
-1.0396616	表 面 上
-1.1096132	历 史 上
-0.36848152	数 形 式
-0.5525106	的 形 式
-0.5525106	种 形 式
-1.0287954	及 在 法
-0.9214258	他 方 法
-0.9940044	的 语 法
-1.5991789	复 数 '
-1.2314624	形 式 '
-0.9516769	， 可 溯
-0.9245653	溯 至 拉
-0.64004064	至 拉 丁
-1.3463209	' ， 由
-0.8822521	由 西 塞
-0.64004064	西 塞 罗
-0.64004064	塞 罗 译
-1.0510746	目 。 此
-1.2651923	。 在 此
-0.9954779	数 ， 此
-0.9954779	途 ， 此
-0.8743242	常 对 此
-0.6358124	解 答 此
-0.80755687	被 亚 里
-0.64004064	亚 里 士
-0.6386551	里 士 多
-0.32013842	了 许 多
-0.32013842	著 许 多
-0.32013842	他 许 多
-0.8055208	的 更 多
-0.92408663	士 多 德
-0.64004064	多 德 拿
-1.0039485	指 “ 万
-0.8055208	九 十 万
-0.6386551	过 七 万
-1.253927	理 及 物
-0.8794031	“ 万 物
-0.80755687	万 物 皆
-0.64004064	<s> 数学有着久远的历史。它被认为起源于人类早期的生产活动；中国古代的六艺之一就有“数”，数学一词在西方有希腊语词源（mathematikós）, 意思是“学问的基础”，源于（máthema）（“科学，知识，学问”）。
-1.2830467	学 有 着
-0.63873774	。 随 着
-0.80755687	有 着 久
-0.64004064	着 久 远
-1.0701137	远 的 历
-1.4059218	学 在 历
-0.87925935	<s> 从 历
-0.3205885	的 历 史
-0.3205885	在 历 史
-0.3205885	从 历 史
-0.97010505	史 。 它
-0.97010505	步 。 它
-1.2381727	生 成 它
-1.2215729	它 被 认
-1.0245794	认 为 起
-0.8816732	于 人 类
-0.80755687	产 活 动
-1.0632675	文 学 ；
-0.63873774	活 动 ；
-1.0213499	； 中 国
-0.8056421	于 美 国
-1.3592354	代 的 六
-1.0154434	量 及 之
-0.8055208	六 艺 之
-0.9495517	在 此 之
-1.0411837	之 一 就
-1.1451907	词 源 （
-1.2311127	源 于 （
-0.87925935	a ） （
-0.49627846	源 （ m
-0.49627846	于 （ m
-0.48184335	h e m
-0.55562043	（ m a
-0.33832735	e m a
-0.8056421	k h a
-0.6502946	m a t
-0.63873774	m á t
-0.55562043	a t h
-0.49627846	á t h
-1.0396616	i k h
-0.48184335	t h e
-0.63873774	. S e
-0.87925935	h a i
-1.040912	a t i
-0.6386551	据 M i
-0.49627846	t i k
-0.49627846	M i k
-0.63873774	y u k
-1.0429488	i k ó
-0.64004064	k ó s
-1.0031177	问 ” ）
-1.1499016	m a ）
-0.6386551	ó s ）
-0.8816732	s ） ,
-0.9245653	, 意 思
-1.0437883	（ m á
-1.3592354	内 的 主
-0.63873774	的 主 要
-0.63873774	些 需 要
-0.80755687	主 要 原
-1.0571202	和 数 理
-0.7992835	及 物 理
-0.634398	要 原 理
-0.634398	学 定 理
-0.634398	于 推 理
-0.634398	的 弦 理
-1.4741579	为 了 做
-0.64004064	了 做 税
-0.64004064	做 税 务
-1.0096803	务 和 贸
-1.2314361	现 于 贸
-0.8056421	更 容 易
-0.3596607	和 贸 易
-0.3596607	于 贸 易
-1.0559956	角 学 等
-1.0323352	贸 易 等
-0.49454653	、 初 等
-0.49454653	等 初 等
-0.93084407	变 化 等
-0.6358124	逻 辑 等
-1.1491721	相 关 计
-1.0636704	纪 ， 算
-0.63873774	关 计 算
-1.0206702	了 了 解
-1.1759629	用 来 解
-1.0613904	解 数 字
-0.9937001	以 文 字
-0.91869974	及 时 间
-0.96669245	图 形 间
-0.8034317	数 字 间
-0.41048223	、 空 间
-0.6497349	的 关 系
-0.73689914	相 关 系
-1.1747087	土 地 测
-1.4647882	为 了 测
-0.6386551	了 预 测
-1.4045676	的 数 量
-0.9152991	对 数 量
-0.9152991	著 数 量
-1.3283913	中 的 量
-0.9106227	量 与 量
-0.49286997	地 测 量
-0.49286997	了 测 量
-0.91287464	著 大 量
-0.91287464	纪 变 量
-0.63298815	： 少 量
-0.98263526	易 、 土
-1.2327634	测 量 土
-1.4741579	为 了 预
-1.0703053	后 的 天
-0.8803856	预 测 天
-1.0703053	越 的 事
-1.2166228	天 文 事
-0.80755687	文 事 件
-0.5975808	和 生 成
-0.5975808	亦 生 成
-0.5975808	域 生 成
-1.3663208	， 且 成
-0.969245	而 形 成
-1.3277038	的 。 这
-1.0636704	来 ， 这
-1.2939357	。 一 些
-0.8056421	。 这 些
-0.80755687	这 些 需
-0.97145045	可 以 简
-0.64004064	以 简 单
-0.9531723	被 概 括
-1.6752888	数 学 对
-0.8056421	却 常 对
-0.5412499	量 、 结
-0.41180423	、 结 构
-0.5412499	构 、 空
-0.88026726	都 得 到
-0.6386551	此 感 到
-0.98245287	术 、 初
-0.96813095	学 等 初
-0.8055208	， 但 初
-1.3823556	以 及 三
-0.64004064	及 三 角
-2.1416717	数 学 已
-0.99456334	) 现 已
-1.066821	用 的 大
-0.8034317	学 已 大
-1.0977137	含 著 大
-0.6372314	的 绝 大
-0.80755687	大 体 完
-0.64004064	体 完 备
-0.97173554	。 1 7
-1.24775	间 及 变
-1.2255948	世 纪 变
-1.1411242	互 相 变
-1.3927891	研 究 变
-0.8794031	使 人 们
-0.63873774	<s> 我 们
-0.5860306	及 变 化
-0.5860306	究 变 化
-1.2791812	间 的 互
-1.4089186	量 的 互
-0.9497026	的 相 互
-1.0127474	系 和 图
-0.9245653	相 变 换
-1.4090385	研 究 经
-0.64004064	究 经 典
-0.64004064	经 典 力
-1.6206626	学 的 过
-0.3596607	加 超 过
-0.3596607	已 超 过
-0.8816732	的 过 程
-0.6913697	的 发 明
-0.58864295	， 发 明
-0.58864295	被 发 明
-0.58864295	曼 发 明
-1.032027	号 有 明
-0.6386551	其 证 明
-0.9497026	兹 是 微
-1.2626706	明 了 微
-0.3596607	是 微 积
-0.3596607	了 微 积
-0.63873774	路 径 积
-0.25761718	微 积 分
-0.35962895	径 积 分
-0.8055208	也 十 分
-0.93646955	大 部 分
-1.0592482	分 。 随
-0.6497349	在 自 然
-0.6497349	着 自 然
-1.0383023	进 一 步
-0.63873774	到 怯 步
-1.3592354	生 的 集
-0.64004064	的 集 合
-1.0180473	库 中 论
-0.9659818	弦 理 论
-0.6372314	集 合 论
-0.41048223	学 评 论
-0.97145045	数 理 逻
-0.64004064	理 逻 辑
-0.96951336	域 内 也
-0.9683075	辑 等 也
-1.1839064	开 始 慢
-0.8056421	始 慢 慢
-0.64004064	<s> 数学从古至今便一直不断地延展，且与科学有丰富的相互作用，并使两者都得到好处。数学在历史上有著许多的发现，并且直至今日都还不断地发现中。依据Mikhail B.
-0.64004064	数学从古至今便一直不断地延展，且与科学有丰富的相互作用，并使两者都得到好处。数学在历史上有著许多的发现，并且直至今日都还不断地发现中。依据Mikhail B. Sevryuk于美国数学会通报2006年1月的期刊中所说，“存在于数学评论资料库中论文和书籍的数量自1940年(数学评论的创刊年份)现已超过了一百九十万份，而且每年还增加超过七万五千份的细目。此一学海的绝大部份为新的数学定理及其证明。”
-1.2792702	断 地 延
-1.2886119	学 有 丰
-0.64004064	有 丰 富
-1.2334183	用 ， 并
-1.0036743	现 ， 并
-0.97109497	并 使 两
-1.063061	初 学 者
-1.3168463	发 明 者
-0.6386551	使 两 者
-1.7784942	科 学 都
-1.231139	今 日 都
-0.87925935	两 者 都
-0.96813095	号 使 得
-0.87925935	者 都 得
-0.6386551	著 值 得
-0.8816732	得 到 好
-0.64004064	到 好 处
-1.4059218	存 在 著
-1.032027	上 有 著
-0.41115278	包 含 著
-1.0204711	在 了 许
-0.9214258	有 著 许
-0.93646955	其 他 许
-1.0592482	中 。 依
-0.64004064	。 依 据
-0.64004064	依 据 M
-0.8822521	a i l
-0.64004064	i l B
-0.64004064	l B .
-0.64004064	B . S
-0.80755687	S e v
-0.64004064	e v r
-0.64004064	v r y
-0.64004064	r y u
-2.1416717	数 学 通
-0.8794031	学 会 通
-0.80755687	会 通 报
-0.64004064	通 报 2
-0.6386551	报 2 0
-0.87925935	2 0 0
-0.6386551	9 4 0
-0.8034317	0 6 年
-0.8767847	4 0 年
-0.8034317	创 刊 年
-0.6372314	且 每 年
-0.97173554	年 1 月
-0.8794031	的 期 刊
-0.63873774	的 创 刊
-1.0211684	刊 中 所
-1.0634851	日 ， 所
-1.3055476	现 今 所
-0.8816732	中 所 说
-1.0039485	， “ 存
-0.9214258	身 亦 存
-0.87925935	学 都 存
-1.6881751	数 学 评
-1.14853	评 论 资
-0.64004064	论 资 料
-0.64004064	资 料 库
-1.0094862	文 和 书
-1.231139	形 式 书
-0.87925935	方 法 书
-0.8822521	和 书 籍
-0.97173554	自 1 9
-0.64004064	1 9 4
-0.92408663	0 年 (
-1.0733318	论 的 创
-0.8767847	十 万 份
-0.91869974	刊 年 份
-0.6372314	五 千 份
-0.9336477	大 部 份
-0.92408663	年 份 )
-0.8056421	增 加 超
-0.8056421	现 已 超
-1.0411837	了 一 百
-0.64004064	一 百 九
-0.8056421	内 也 十
-0.63873774	百 九 十
-0.98551655	而 且 每
-0.8816732	年 还 增
-1.0429488	超 过 七
-0.8816732	七 万 五
-0.64004064	万 五 千
-1.0733318	份 的 细
-0.64004064	的 细 目
-1.0665296	一 学 海
-1.0733318	海 的 绝
-0.5860306	的 大 部
-0.5860306	绝 大 部
-2.180519	数 学 定
-1.0057786	及 其 证
-2.1005757	数 学 出
-1.4851443	始 ， 出
-1.3107897	发 明 出
-0.9336477	书 写 出
-1.2314361	现 于 包
-1.3253046	符 号 包
-0.36016124	于 包 含
-0.36016124	号 包 含
-0.97109497	化 等 困
-1.0096803	法 和 难
-0.63873774	等 困 难
-0.36848152	的 问 题
-0.5525106	多 问 题
-0.5525106	难 问 题
-1.2314624	世 纪 后
-0.8794031	及 之 后
-0.92408663	在 著 值
-2.1416717	数 学 家
-0.63873774	于 专 家
-0.8816732	学 本 身
-1.3324308	题 。 牛
-0.64004064	。 牛 顿
-1.0127474	顿 和 莱
-0.64004064	和 莱 布
-0.64004064	莱 布 尼
-0.64004064	布 尼 兹
-1.0636704	者 ， 费
-1.2626706	明 了 费
-0.36016124	， 费 曼
-0.36016124	了 费 曼
-0.9392245	费 曼 路
-0.64004064	曼 路 径
-1.005522	用 于 推
-1.0733318	理 的 洞
-0.64004064	的 洞 察
-1.0733318	日 的 弦
-2.180519	数 学 只
-1.066821	它 的 领
-1.0349838	被 一 领
-0.9469557	答 此 领
-1.2152629	许 多 领
-0.21574908	的 领 域
-0.21574908	一 领 域
-0.21574908	此 领 域
-0.21574908	多 领 域
-0.80755687	来 解 答
-1.0703053	域 的 更
-0.8056421	而 言 更
-1.3277038	题 。 但
-1.0636704	作 ， 但
-1.0093452	的 一 般
-0.8176302	但 一 般
-0.8176302	号 一 般
-0.91952884	在 其 他
-0.79292667	以 其 他
-1.2381601	是 “ 最
-0.64004064	“ 最 纯
-0.8056421	学 通 常
-0.63873774	者 却 常
-1.0322242	亦 有 实
-0.8056421	的 事 实
-0.80755687	有 实 际
-1.013217	的 用 途
-1.4360477	此 一 卓
-0.64004064	一 卓 越
-0.996656	， 被 维
-0.64004064	被 维 格
-0.64004064	维 格 纳
-0.64004064	格 纳 称
-1.14853	不 可 想
-0.64004064	可 想 像
-1.035339	的 有 效
-1.674483	数 学 符
-1.2788714	今 的 符
-1.408501	量 的 符
-0.6386551	音 乐 符
-0.23268388	学 符 号
-0.23268388	的 符 号
-0.3205885	乐 符 号
-0.80755687	纪 后 才
-0.8816732	此 之 前
-0.4970483	式 书 写
-0.4970483	法 书 写
-0.80755687	， 这 种
-0.8816732	式 会 限
-0.64004064	会 限 制
-1.005522	对 于 专
-0.8816732	容 易 去
-0.64004064	易 去 控
-0.8816732	学 者 却
-0.9520849	对 此 感
-0.8816732	感 到 怯
-1.2215729	它 被 极
-1.0733318	度 的 压
-0.64004064	的 压 缩
-0.64004064	压 缩 ：
-0.64004064	缩 ： 少
-1.4155462	量 的 讯
-1.0328081	写 的 讯
-0.41180423	的 讯 息
-1.0592482	息 。 如
-0.64004064	。 如 同
-0.64004064	如 同 音
-0.64004064	同 音 乐
-0.9516769	有 明 确
-0.9392245	讯 息 编
-0.64004064	息 编 码

\end\
